<?xml version="1.0"?>
<opencv_storage>
<opencv_ml_ann_mlp>
  <format>3</format>
  <layer_sizes>
    56 40 34</layer_sizes>
  <activation_function>SIGMOID_SYM</activation_function>
  <f_param1>1.</f_param1>
  <f_param2>1.</f_param2>
  <min_val>-9.4999999999999996e-01</min_val>
  <max_val>9.4999999999999996e-01</max_val>
  <min_val1>-9.7999999999999998e-01</min_val1>
  <max_val1>9.7999999999999998e-01</max_val1>
  <training_params>
    <train_method>BACKPROP</train_method>
    <dw_scale>1.0000000000000001e-01</dw_scale>
    <moment_scale>1.0000000000000001e-01</moment_scale>
    <term_criteria>
      <iterations>10000</iterations></term_criteria></training_params>
  <input_scale>
    9.5655632624081566e+00 -8.7124674875823805e-03
    4.7345745906187151e+00 -2.0842909013729448e-02
    1.1682639196883386e+00 -8.6278618129544862e-02
    3.6862734162961652e-01 -2.4993913038158361e-01
    1.7800140491476052e-01 -5.8849223493564617e-01
    1.4319935564000222e-01 -1.2162217455335840e+00
    1.6398311421247475e-01 -1.9997849685402898e+00
    1.7684732005107165e-01 -2.0361401765364029e+00
    2.3579715768806689e-01 -2.1006439462742912e+00
    2.5510580988951292e-01 -2.2583883215531948e+00
    2.4623324754711645e-01 -2.3216571316922536e+00
    2.2947591184412178e-01 -2.3512093218785459e+00
    2.0205135812285741e-01 -2.4706241968571030e+00
    1.8972977506327959e-01 -2.2286732234207371e+00
    1.7077850960544205e-01 -1.2800416396240613e+00
    2.2506678132503602e-01 -5.7212232055838952e-01
    4.9546169453304717e-01 -2.2947303681522987e-01
    1.4931325033231260e+00 -8.1711463749220031e-02
    3.0285430983463133e+00 -1.9998728619061042e-02 1. 0.
    3.4779040896890073e-01 -1.6678892910726417e+00
    3.6444806204808000e-01 -2.4814003004144949e+00
    3.5911656902377020e-01 -2.3502169207541965e+00
    4.4512924799425602e-01 -2.3226455622476756e+00
    5.2114731795316160e-01 -2.4696647283799353e+00
    5.1950256384219629e-01 -2.3746097457081401e+00
    5.0665222323904124e-01 -2.3649026013306504e+00
    4.5170889633200223e-01 -2.3705202885230334e+00
    3.9021083571954729e-01 -2.3907558914700249e+00
    3.7000917011734069e-01 -2.3983053586725269e+00
    3.8037343722763328e-01 -2.2622331249218717e+00
    4.2882740277261011e-01 -2.1767181319029278e+00
    4.9871926569714264e-01 -2.2757875501311511e+00
    5.0029665921839983e-01 -2.2822261491981060e+00
    4.6179873361659113e-01 -2.2657756158211524e+00
    4.3446545557490052e-01 -2.3043981810682390e+00
    3.9781703642083466e-01 -2.2702897407521605e+00
    3.5313689730554298e-01 -2.2729954584671463e+00
    3.7723016665273312e-01 -2.3503085738031309e+00
    3.9098320866921987e-01 -1.6827857948833482e+00
    6.7417319004135720e+01 -4.6571907178364352e-01
    2.2016442976732240e+01 -2.7140800201616537e+00
    1.9249447690142265e+01 -2.4937839328124558e+00
    8.1543066468233476e+01 -4.1853649092187661e-01
    5.5875456646251600e+01 -4.6986174811868203e-01
    1.8539059735802319e+01 -2.1636408714752133e+00
    2.0975048965068069e+01 -2.4475743306021145e+00
    7.0975789560613535e+01 -3.9781060949674807e-01
    5.6500525801757227e+01 -4.6663213956115696e-01
    1.9347580795270783e+01 -1.8670074481997914e+00
    2.2861280097133132e+01 -2.6703310530383573e+00
    6.5065856240011684e+01 -4.5681742585737684e-01
    6.7981544921488279e+01 -4.8830755634899253e-01
    2.3327333452260103e+01 -2.9946948597839391e+00
    2.2928435753318546e+01 -2.7213167618446246e+00
    9.0463000396510566e+01 -4.4245853048448486e-01</input_scale>
  <output_scale>
    5.2631578947368418e-01 4.9999999999999994e-01 5.2631578947368418e-01
    4.9999999999999994e-01 5.2631578947368418e-01 4.9999999999999994e-01
    5.2631578947368418e-01 4.9999999999999994e-01 5.2631578947368418e-01
    4.9999999999999994e-01 5.2631578947368418e-01 4.9999999999999994e-01
    5.2631578947368418e-01 4.9999999999999994e-01 5.2631578947368418e-01
    4.9999999999999994e-01 5.2631578947368418e-01 4.9999999999999994e-01
    5.2631578947368418e-01 4.9999999999999994e-01 5.2631578947368418e-01
    4.9999999999999994e-01 5.2631578947368418e-01 4.9999999999999994e-01
    5.2631578947368418e-01 4.9999999999999994e-01 5.2631578947368418e-01
    4.9999999999999994e-01 5.2631578947368418e-01 4.9999999999999994e-01
    5.2631578947368418e-01 4.9999999999999994e-01 5.2631578947368418e-01
    4.9999999999999994e-01 5.2631578947368418e-01 4.9999999999999994e-01
    5.2631578947368418e-01 4.9999999999999994e-01 5.2631578947368418e-01
    4.9999999999999994e-01 5.2631578947368418e-01 4.9999999999999994e-01
    5.2631578947368418e-01 4.9999999999999994e-01 5.2631578947368418e-01
    4.9999999999999994e-01 5.2631578947368418e-01 4.9999999999999994e-01
    5.2631578947368418e-01 4.9999999999999994e-01 5.2631578947368418e-01
    4.9999999999999994e-01 5.2631578947368418e-01 4.9999999999999994e-01
    5.2631578947368418e-01 4.9999999999999994e-01 5.2631578947368418e-01
    4.9999999999999994e-01 5.2631578947368418e-01 4.9999999999999994e-01
    5.2631578947368418e-01 4.9999999999999994e-01 5.2631578947368418e-01
    4.9999999999999994e-01 5.2631578947368418e-01 4.9999999999999994e-01
    5.2631578947368418e-01 4.9999999999999994e-01</output_scale>
  <inv_output_scale>
    1.8999999999999999e+00 -9.4999999999999996e-01
    1.8999999999999999e+00 -9.4999999999999996e-01
    1.8999999999999999e+00 -9.4999999999999996e-01
    1.8999999999999999e+00 -9.4999999999999996e-01
    1.8999999999999999e+00 -9.4999999999999996e-01
    1.8999999999999999e+00 -9.4999999999999996e-01
    1.8999999999999999e+00 -9.4999999999999996e-01
    1.8999999999999999e+00 -9.4999999999999996e-01
    1.8999999999999999e+00 -9.4999999999999996e-01
    1.8999999999999999e+00 -9.4999999999999996e-01
    1.8999999999999999e+00 -9.4999999999999996e-01
    1.8999999999999999e+00 -9.4999999999999996e-01
    1.8999999999999999e+00 -9.4999999999999996e-01
    1.8999999999999999e+00 -9.4999999999999996e-01
    1.8999999999999999e+00 -9.4999999999999996e-01
    1.8999999999999999e+00 -9.4999999999999996e-01
    1.8999999999999999e+00 -9.4999999999999996e-01
    1.8999999999999999e+00 -9.4999999999999996e-01
    1.8999999999999999e+00 -9.4999999999999996e-01
    1.8999999999999999e+00 -9.4999999999999996e-01
    1.8999999999999999e+00 -9.4999999999999996e-01
    1.8999999999999999e+00 -9.4999999999999996e-01
    1.8999999999999999e+00 -9.4999999999999996e-01
    1.8999999999999999e+00 -9.4999999999999996e-01
    1.8999999999999999e+00 -9.4999999999999996e-01
    1.8999999999999999e+00 -9.4999999999999996e-01
    1.8999999999999999e+00 -9.4999999999999996e-01
    1.8999999999999999e+00 -9.4999999999999996e-01
    1.8999999999999999e+00 -9.4999999999999996e-01
    1.8999999999999999e+00 -9.4999999999999996e-01
    1.8999999999999999e+00 -9.4999999999999996e-01
    1.8999999999999999e+00 -9.4999999999999996e-01
    1.8999999999999999e+00 -9.4999999999999996e-01
    1.8999999999999999e+00 -9.4999999999999996e-01</inv_output_scale>
  <weights>
    <_>
      -2.5379698307357684e-01 -1.5174369063933384e+00
      2.0544786374009423e+00 4.7008225218132772e+01
      1.3137019905194356e+00 -1.8294218038914158e+00
      -4.3546573592234780e-02 2.6237664297157122e+00
      -7.8082148946421781e-01 -1.7896516864376877e-01
      2.8773540178758231e-02 -1.2657432176668115e-01
      1.9577191129981739e+00 -5.2538876837777844e+00
      1.4763033760090952e-01 1.5581654710207051e-02
      -8.4295780081448346e-01 -4.8088057095673528e-02
      -2.2931724609441617e-01 1.2324111717744708e-01
      -1.5081162923925862e+00 -2.7776800161426124e-01
      -6.1127390878906107e-01 8.9783922039172737e-01
      -4.4126601550226252e-01 -3.1384117695545954e-01
      -4.8279309774781587e-01 9.5965709318075507e-02
      -2.5667132336206944e+00 -1.0922614138077760e+00
      1.9469821794658815e-01 -1.5890582425402549e+00
      -2.9081480645987519e+00 -4.4021343963597664e-01
      -2.8292685878997198e-01 1.5323941677766468e+00
      -1.1746010169668952e-01 2.3757529294660800e+00
      1.3353605571264022e+00 -6.7606574259798435e-01
      1.5870678087560115e+00 -3.2884352808723127e+00
      -7.1613142689247469e-02 1.7391903551844798e+01
      3.9546830440267766e-01 1.7022638767856773e+00
      4.1919380767430964e-01 2.6899074709049828e+00
      5.3905707172819051e-01 9.6019209603172506e-01
      -4.1156748229272050e-01 9.2890620274348312e-01
      -1.2197308541022756e+00 -1.4947655860153197e+00
      -3.8744642156390481e+00 1.9404959433963214e+00
      2.3702303654632715e+00 1.8770019388333248e-01
      5.7796509487695968e-01 4.3958472941998386e+00
      -5.5021341955300516e+00 4.7090847222408145e+00
      2.7627485446851638e+00 7.7169849588898054e-01
      -1.8703438277455875e+00 2.7289690783668914e+00
      -1.1758132729064612e+00 1.5024618778909427e+00
      -1.4272462754583324e+00 -2.9689516927885502e+00
      -1.4367481486745968e+00 -7.3151248530469570e-01
      2.0408138849896358e+00 1.0752384349669064e-01
      1.1520789370325085e-02 3.5649257496054976e-01
      -2.5484158382424797e+00 -2.1915396924115829e+00
      1.3851422830517954e+00 -4.5619408612618602e-02
      -2.6375404692940219e+00 9.6790672187812021e-01
      4.8836967741794606e+00 4.7015252401271024e+00
      1.4541517029769382e+00 -2.0388592570578803e+00
      2.1160139684955164e+00 6.4001508825811539e+00
      2.8979057187719692e+00 -2.4632347681686619e+00
      3.0296953731751288e+00 2.6340955082363791e+00
      9.7347842406687590e-01 -1.3561772611259153e+00
      4.2164537584646811e-01 3.1420859767972824e+00
      4.8653576280159105e-01 1.4551889844062462e+00
      1.3463689954868745e+00 -2.8172191121356334e+00
      -7.0847492917387833e-01 3.6613368483641007e-01
      1.2241602081548393e+00 4.9222854337529389e+00
      5.7594906067825746e-01 3.5589305644237106e+00
      -2.8389921659922307e-01 -3.1995525828814991e-01
      -2.8445607550908112e+00 -4.1701606856685522e+00
      -7.0957668744661662e-01 -1.7105380755707264e-01
      -1.0550829831777357e+00 -9.1104727018598697e-01
      -1.2645413577690854e+00 -4.9236429784480036e+00
      -2.0253482819626867e-01 -1.4001077231132026e+00
      -1.0354633384571714e+00 5.8912858971405768e-01
      1.6894831254133498e+00 -1.9267895461010309e+00
      -3.5608222346965263e-01 5.1779981863282498e-01
      2.0011614574255612e+00 -3.7420510976490312e-01
      2.8189170312984474e-01 1.7204889972646795e-01
      -7.0965545120487927e-01 2.3737845190945586e+00
      -8.0638159561654643e-01 1.1333009938125389e+00
      1.0933813614328951e+00 -5.4853971397171772e+00
      1.6698603918258552e+00 -3.0842469621243231e-02
      4.5620634519184494e-01 -8.5620882105786822e-01
      1.4450185982082102e+00 2.3747790567669012e+00
      7.6927344582323742e-01 2.2682559445833004e+00
      -5.2994826742679502e-01 1.5918070342795350e+00
      -4.4584590492009774e-01 1.6668038244546783e+00
      1.9422260432654832e+00 1.2178847955941752e+00
      1.6957549844227737e+00 7.4167610570411957e-01
      1.9018668917719767e-01 -1.2943537168177155e-01
      1.8646314240108736e-01 1.2999866197428367e+00
      -5.8698560691328039e-01 1.0022414610625798e+00
      1.1574665358582974e+00 1.7148223728436787e-01
      1.7495102424372868e+00 1.4552844564989265e+00
      -4.0510513503552642e-01 1.4006087789671653e-01
      2.3134883200539309e+00 1.2683539456148525e+00
      -2.9923527087440649e-01 -2.8891057295130902e+00
      -1.9552236241523673e+00 -2.4617342591451861e+00
      -1.9688494797287397e+00 4.4315416317111689e+00
      -2.9879630336151295e+00 2.1507656498958450e+00
      4.1310911007790976e+00 -1.4726986672984517e+00
      -3.0466423575459558e+00 3.7835283557854011e+00
      2.1709416567162370e+00 -5.7377666784366612e+00
      -4.1354007156916167e-01 -5.5443131847193150e-01
      2.0172075033624086e+00 1.2580645846827766e+01
      -1.6316219106395855e+00 2.2509518868313134e+00
      1.0442503732129789e+00 9.4583174234342637e-01
      -2.5519194762473720e+00 -1.4245270595197987e+00
      -1.2668236719039600e-02 4.4453053808172420e+00
      -1.0548842778211647e+00 -4.1482043477430093e+00
      -1.9230137747526380e-01 -2.3996434965410693e-01
      1.1955444826845035e-01 2.5634399548790769e+00
      1.1364739257957726e+00 5.1448929009912225e+00
      -4.0086608397260665e-01 1.6481501560631904e+00
      3.9503368497636115e+00 -2.8749264352017936e+00
      -1.6060295474614741e-01 -4.8511285391629783e-01
      -6.5876825601519695e-01 -2.6501093532124975e+00
      1.1177304651544573e+00 1.0197546359215544e+00
      3.1799369605147212e+00 -1.9111393037515627e+00
      -1.5693083544167756e+00 5.2493384966498791e-01
      3.8824468606296829e+00 2.2929281979944971e+00
      4.3520653274896652e+00 1.9540784033896548e+00
      -3.0793353011459961e+00 -1.3455564353531986e+00
      6.2836323204722577e-01 -1.1315096924197940e+00
      -9.1035130032227518e-01 3.8204799112146666e+00
      -3.6850786067608317e+00 1.9075919577965483e+00
      -1.1093873921646964e-01 3.0799897757694956e+00
      7.2727856708505312e-01 -2.5632452753955759e+00
      7.6649504595808038e-01 -5.0353874655462896e+00
      -2.0205196860094690e+00 3.1043821016551538e+00
      -3.8087612016117136e+00 -1.8747431905191030e+00
      4.8987109430431552e-01 -2.3528303612845591e+00
      -1.1976326710838503e-01 -2.1915282471165289e+00
      5.7227799135975954e-01 8.8098933709181415e-01
      1.2207147592543533e+01 -6.2163724282587172e+00
      -8.2767569371400267e+00 -1.0013211640545794e+00
      3.1813582846049426e+00 1.1257014308814844e+01
      1.3227188894547754e+00 1.0495803521457947e+01
      -3.8960154658954871e-01 9.0239527870170644e+00
      -2.3753961591004784e+00 -4.2258927363316667e+00
      3.5346657534014603e+00 2.9066796836397208e+00
      4.3691885604688121e+00 -1.3217758162016400e+00
      -2.0931180043133790e+00 -3.8661684009439323e+00
      5.8475426049585160e+00 -9.1581206589201045e+00
      -1.2502611055613423e+01 1.4418664670739361e+00
      -2.4202870167461918e-01 1.3585356783372760e-01
      -1.5421837600766699e+01 2.9092142849988059e+00
      -2.9222130256281620e+00 1.7942285925060975e+00
      -1.7882601688965691e+00 -1.7442534174700235e+01
      -5.0555556923179275e+00 2.4493624132456167e+00
      4.2277904035281031e+00 5.9288330863578347e+00
      2.9957691189080164e+00 -3.7353443005940536e+00
      -9.6669351010314830e-01 4.5455285331112583e+00
      2.2335650318496039e-01 -4.3173022994870731e+00
      3.6100193199821620e+00 -6.0635790932584470e+00
      1.0750483225056453e+00 -1.5793920968251045e+00
      5.1030719267316051e+00 -1.7502623377063193e+00
      -2.4223273609413254e+00 6.1963033324873351e-01
      7.0202861996525612e-01 -1.7203276452780186e-01
      -6.9440401259790119e-01 3.3106601080493209e-01
      2.5436742125422693e+00 1.6807279541555731e+00
      9.3344276468946976e+00 -1.9225427054325204e+00
      -1.1378585013247668e+00 -2.6741237500296315e+00
      3.2803090866954667e+00 -5.3766093375499979e+00
      -1.4964792832080203e+00 -1.4739191855633951e+00
      -1.1437844572463731e+00 -4.8168121685800530e-01
      2.6729864929950797e+00 6.4487814328770972e+00
      -5.3491668381881985e-01 -4.1454907250247732e+00
      -5.0047861448693998e-01 -7.5126312430667062e+00
      5.4080958667991375e-01 -3.9281714469152158e+00
      1.6783450515499032e-01 -3.2149622707253780e+00
      -2.1959574254555272e+00 -5.9585378851679334e+00
      -5.3157616040728920e-03 1.8749795505627587e+00
      5.1458751117458246e-01 4.8468967575385935e-01
      2.0824951631771360e+00 3.8543164709029326e-01
      -1.4679973784460532e+00 1.3827234392433246e-01
      7.6851202712842106e+00 -1.0705323027447700e+00
      4.0485011277577119e+00 4.4883767301892048e+00
      5.6336649510939765e+00 -3.3114187458728015e+00
      -2.5975224687052916e+00 -9.0153881088698784e-01
      -2.5384004536208939e+00 8.4915804702347525e-02
      -1.8077057593361932e+00 -2.0615284742371096e+00
      -1.2273719869540478e+00 6.0798156515890396e+00
      5.1081293087283210e+00 -1.2957888887486771e-01
      9.7768645939023857e-01 -9.2765196709156039e-01
      8.1189500249476207e+00 -5.9928586203829759e-01
      7.2285147614066405e+00 2.5628730163245295e+00
      3.9781691444675282e-01 -7.2606216253624956e-01
      -3.9760340276656980e-01 1.2144073975624053e+01
      -2.5982337560429061e+00 6.7426041688703975e-01
      9.4514898378965939e-01 -9.4427121019742744e-01
      -1.0301443798096890e+00 -7.1531065037312871e+00
      -5.8175488209543555e+00 -5.2711558484699292e+00
      4.8990743950536793e+00 -2.2698646385676477e-01
      -4.8170805299206947e+00 5.0245140255586245e+00
      8.7094705998893058e+00 1.4877031101875808e+00
      3.4554666209126252e+00 -7.6422782655963661e-01
      3.0890856563740599e-01 -7.3001505510721447e+00
      -3.2457071070518495e+00 5.8351478428969692e+00
      -1.6932187686244211e+00 -1.4481284464088033e+00
      -1.4372736413797897e+00 -3.7309372745171734e+00
      -2.0880779573014290e+00 -6.4081104741805861e+00
      3.0238159295777622e+00 1.0128135043735504e+01
      3.6829330392479259e-01 -1.2059044603447135e+00
      2.5291405252694799e+00 4.7020042408257829e+00
      3.4085562248763185e-01 -5.7948406883351677e-02
      1.5643924510833131e+01 -6.6269989668124634e+00
      -7.3760202322339996e+00 2.1925784792471061e+00
      3.2954772951642625e-01 9.5007239524647318e+00
      2.7522100762888440e+00 -4.2793397984005193e+00
      -3.0734179599113918e+00 5.5254821369825056e+00
      -3.6127827481835684e-01 9.3568291457289359e+00
      8.4014051141317978e+00 7.2335730545907557e+00
      3.8686841893766069e+00 -1.1996527327506092e+00
      -5.0102836552963232e+00 7.1630378601432643e+00
      7.0462880339988665e+00 -5.2121756627982552e-01
      -1.2090886668316397e+01 1.1877370261275345e+01
      4.2064240149855664e-01 -2.6725627518446409e+00
      -1.9589783969249486e+00 1.0914686484512243e+01
      4.7944712053950517e-01 -3.0003672910640136e+00
      -9.7121059888789532e+00 2.1090224380403817e-02
      3.4515045046919393e+00 -4.9611314510694324e+00
      6.3275737671192909e+00 -8.6258966207318799e-01
      -8.7317270768384585e+00 -4.2179721686038407e+00
      -6.2238975174716247e+00 -7.6724118667459127e+00
      -3.9442864677788431e-01 -5.3281371820629415e+00
      9.8007306978665032e-01 -4.2187310323665281e+00
      1.9236264895970623e+00 -2.9437337203752607e+00
      9.6400539243519852e+00 -2.4940194768390191e+00
      1.6170132299749205e+00 -1.2029529605168149e+01
      -1.1863382387270814e+01 5.0393923857004879e+00
      -1.6526581572278516e+00 7.1236497876568743e+00
      2.0197505852237976e+00 4.5155031616153751e+00
      8.3693077923735988e+00 3.7163986579867075e-01
      -5.2253992699564211e+00 3.0202865203238414e+00
      3.0163903619029147e+00 -5.0075926549215721e-01
      -7.0293046917468356e+00 -2.1824540246456010e+00
      4.1901113538912860e-01 -1.9062720041375640e+00
      4.5222362171209740e+00 -3.6409575646190673e+00
      1.1023044197651559e+00 -7.3193886192572943e-01
      -1.3449172778259317e+00 3.2402478604697151e+00
      2.3471649489399780e+00 -5.1676527620298076e+00
      8.3007193851509768e+00 8.8422228439489903e-01
      -8.6749600286512187e+00 4.4182878908928238e+00
      7.3909261881395039e-01 -8.5254210061401192e+00
      9.3615407014186385e+00 -6.2480411334263737e+00
      -1.2033425196428338e+00 -3.0709241180928353e+00
      -4.7315017345429794e-01 -4.6216466876646445e+00
      4.1105531393656296e+00 2.4126330338273978e+00
      2.0131019353917465e+00 -1.4226786529171318e+00
      -3.1952500750103416e+00 1.6429645369673507e-02
      -2.0137819186905976e+00 -1.9561580212061780e+00
      -2.2756863402572431e+00 -5.1809679281904728e+00
      -2.8600294659905030e+00 3.8723414375137255e-01
      -1.7231704889599304e+00 -3.0742535844971579e+00
      -1.2580703377182432e+00 -1.1358265804856646e+00
      1.0700722614510065e+00 -3.5138076380516030e+00
      3.7554337857392754e+00 -1.6733148823757435e-01
      -3.6557364103703689e+00 -9.1828009865193891e+00
      3.8995200109191770e+00 1.7952769956157688e+00
      -1.1435655126161530e+00 1.9706131549115244e+00
      -3.1706398094357340e+00 6.4088663525908203e+00
      -6.6690916842892645e-01 7.0970606169400197e-01
      -5.1176377794203107e+00 6.4847475276894002e+00
      -1.6041788347172932e+00 -4.3442814314421812e+00
      8.1989041824133435e-01 6.7101859330954472e-01
      -6.2822340935555072e+00 -3.5190331704006548e+00
      2.7218159836082734e+00 -9.7738160080536463e-01
      -1.9973091961825038e+00 2.3905114953760789e+00
      -2.9161084561894142e+00 7.3715526703209253e+00
      2.5176435302075792e+00 1.3592771061498365e+00
      -2.7585674444367747e-01 -1.2097581643588498e+00
      -1.8752171097818702e+00 -2.0511528832951087e+00
      -2.2306355408313707e+00 -1.6040078978436145e+00
      -3.7347129569866242e+00 3.4236167227912162e+00
      1.4123308872156444e+00 -8.9000448505469565e-01
      -1.2322733330910545e+00 -1.8686873448458050e+00
      -4.2933448019041043e+00 2.8506115645260164e+00
      -1.7680456539546002e-01 -1.8339479193818582e+00
      5.4536080254688892e+00 4.0678152482523391e+00
      2.3158452464483608e+00 8.5720846062208100e-01
      -1.9991509210113765e+00 -1.3304182062512238e+00
      -7.1340531942653644e+00 7.3091845854514750e+00
      -9.1928609667310068e-01 3.4958331728412722e+00
      2.9796316961395810e+00 -3.6862976136325476e+00
      4.5528832188902504e+00 5.3765755512686901e+00
      -3.9616211485666177e+00 -2.5337355714141543e+00
      1.0263880164170938e+00 3.8280370220697577e+00
      -3.7569281667424028e+00 5.5329056840253870e+00
      -2.4564171887275075e+00 6.0496204352913763e+00
      1.2979331927561744e+00 -3.5371618499742432e+00
      -1.4752182240618608e+00 4.7506129855554147e-01
      -2.2715026855603160e+00 5.4676786749957618e+00
      -9.5483384109585341e+00 1.4782178508486636e+00
      -6.7788016433689335e-01 -1.6156565188773864e+00
      -5.0929274754836584e-01 9.4114456551334669e-01
      -1.2275303041821555e+00 2.5444242616790652e-01
      2.8776230293935150e+00 -3.4262346958736365e+00
      6.3033661083129500e-01 -1.2263192760134545e+00
      -7.0451854410909387e-01 1.3763263392204574e+00
      -2.1601266683082065e+00 -2.6167135218172222e+00
      -7.3807934836763103e+00 5.1709182430415144e+00
      3.3581163255570631e-02 -2.3408075147515359e+00
      1.5984555499392554e+00 4.4371658451132729e+00
      5.2150945267837283e+00 -4.3615974855000319e+00
      -6.3446275494003661e+00 -1.5842181027273077e+00
      -1.2904621143854822e+00 -1.4991111556242696e+00
      1.1051059881134790e+00 -3.9128279170572617e+00
      -3.8090815072527628e+00 1.4851815073326664e+00
      1.7948413194393520e-01 1.1157393904440787e+00
      1.1113710695124916e+00 -7.4135308327800342e-01
      1.7549209365059322e+00 8.1746677565188719e-01
      -1.0317649517663561e+00 -7.9867892628046881e+00
      -2.4299968065750588e+00 7.0202700569390331e-01
      -6.1200464281652933e-02 4.3649544116309791e+00
      -5.9674612700235408e-01 -5.0698382528597663e-01
      -3.9943028826790755e-01 1.4994947359431807e+00
      -4.3584839260233057e+00 -2.5176937150783441e+00
      -3.1308213499062951e+00 3.2475189541229508e+00
      2.8365889299132281e+00 -6.1826609673427244e+00
      -5.7847798270940274e+00 -3.8044737161367909e-01
      -2.5966587794030009e+00 -1.5203962920320984e+00
      -1.8866470826838364e-01 -2.2382323195466838e+00
      2.6362230482295834e-01 -1.0897083347018766e+00
      -1.1763883705227538e+00 1.3085525867701453e+01
      1.5721000603804782e+00 -5.4974713321890956e-01
      4.5180456641669977e+00 -5.0743013238177748e-01
      1.7578726223306511e+00 -2.0568835642296364e+00
      -1.2074873559954888e-01 1.2958936798284959e+00
      6.0438534003585946e+00 -1.0244429601043645e+00
      1.5101044890846080e+00 -4.0296484546189948e+00
      1.8856757752633346e-01 4.7571163454259346e-01
      -1.9833229867593555e-01 7.7236838510887262e-01
      -1.0550062776594686e-01 1.2946414103267523e+00
      2.4757161108498615e+00 -1.6559430482276707e+00
      -1.4423984306427085e+00 2.2365057659802492e+00
      -3.4315489378714124e+00 1.3422517858213197e+00
      -3.1587882551787705e+00 1.4853842775602583e-01
      1.9928849211671806e+00 -6.5574477235154272e-01
      1.4111581011799819e+00 -2.2063840549038605e+00
      1.4802344648369488e+00 -7.8145976861446220e-01
      -3.2527598175328590e-02 9.2789814695165951e-01
      -2.1126737793503045e-01 -2.7677083399225955e-01
      -1.8903981572752226e+00 -7.1498947349060704e-02
      -7.0720704105336507e-01 1.7703104530627181e+00
      -3.3236111087717588e+00 -6.2759873032808577e-01
      -1.1245926245436406e+00 -1.4124690951384522e+00
      5.1273431941626324e-01 2.6616695868211426e+00
      -1.3899322023128082e+00 5.9071441588910834e-01
      4.1895647691230670e-01 7.8061892432242694e-02
      9.8316317413235244e-01 4.6808521192959779e-02
      3.4703092312057227e-01 -1.5115704439811954e+00
      3.0438730026314547e+00 3.4685799076438734e-01
      -2.7039968705299149e+00 1.0964668324921841e-02
      1.3242805853310031e+00 2.1614283402696798e-02
      2.8537340670509921e+00 5.0085778869880855e+00
      1.0785731961304208e+00 3.1547484407306220e-01
      2.1578171434339248e+00 4.6461056176592264e-01
      -2.3229495056466893e+00 -4.1493727788120072e-01
      2.4795014057049740e+00 -1.0197106261342179e+00
      -1.4052226275550812e+00 5.2979867858238140e-02
      -6.6769950359992303e-01 3.4649071593818964e-01
      -2.6988052756301202e+00 -8.3858156218272972e-01
      1.6218506674912736e+00 8.7842287347910109e-01
      1.9320490286424388e+00 1.9606824016942721e+00
      -4.5600650393692810e+00 -4.8643460317961884e-01
      8.1507615297836988e+00 -3.7250420049482798e+00
      1.4797752769417052e+00 -4.3145456518495298e+00
      4.8644780482495648e-01 3.0897945958700128e+00
      1.3579086187065495e-01 1.5319960869964442e+00
      6.4367721769064157e-01 -2.4104677984791358e+00
      4.3430731267154892e+00 -1.2851171744622096e+00
      5.7651658073832966e-03 6.3044141408906782e+00
      -2.5666892176706935e-01 -2.3236856696317471e-01
      3.5446862169407649e+00 -1.0503174878113930e+00
      1.1292116928439480e+00 6.0772342152511962e+00
      2.7471864300957081e+00 1.5173692118118272e+00
      6.9917889099237784e-01 7.6484469227313900e-01
      -2.5620845479830625e+00 -3.0009484947260443e+00
      -5.8095086655766626e-01 7.8249006324040771e-01
      1.2862253653178322e+00 2.1330050430396303e+00
      -5.2736433801479823e+00 3.1547566685497639e+00
      1.3639930999725045e+00 5.5027888588173388e+00
      -5.0634663966249416e-01 5.7634919963521938e+00
      -1.8901806387054159e+00 1.8293974497634058e+00
      -2.7376763480552668e+00 7.8842798083631371e-01
      -4.5095275298635396e-01 -7.3364655659572398e-01
      5.7340782396354273e-01 2.0597887192551871e+00
      1.3423714587635407e-01 8.7362024318840592e-01
      -2.2071876262037030e-01 -1.8707291825840398e+00
      -9.0795073973960949e-01 1.8957726341717798e+00
      1.9320699333074887e+00 -1.2650443249876364e+00
      1.2755330439556538e+00 7.6143621382337368e-01
      5.7016101030320254e-01 4.3318134327791075e-01
      -9.8083480999578768e-03 1.2481235548339980e-02
      8.6198038333800027e-03 2.2941011778446464e-02
      1.6193580502784498e-03 -2.5122773438368880e-02
      5.2203927416194229e-03 4.2499146675832660e-03
      2.4372869480473625e-02 3.9168434630699502e-02
      -2.8998332229776901e-02 2.4650330530518481e-02
      3.9462738768635593e-03 -1.1887030681090958e-02
      2.5340014718498741e-02 4.2717784885459341e-03
      -2.2757296650411010e-02 1.1282703616195483e-02
      1.5486322271910285e-02 -2.8068226308925422e-02
      -1.8084659098246202e-02 6.8201124336805911e-03
      -1.4205286265941560e-02 -1.1978570501660775e-02
      -2.3121461980214098e-03 2.4450361581809348e-02
      1.9321612774696111e-02 2.4328277944582880e-02
      3.0957222850034914e-02 -4.5714129517191214e-03
      7.7748903381392289e-03 1.2872758534850133e-02
      3.1484272794611225e-02 -5.7242296723758355e-03
      1.8586446238310496e-02 2.4646214706099887e-02
      -2.7193508036918574e-02 -3.7402337507657746e-03
      -8.7349140419013872e-04 -3.0771410266758441e-02
      1.7777943036156254e+00 -2.6637425629205382e+00
      2.2271798674753747e+00 -1.2566987588677543e+00
      -4.3620870297972054e+00 -1.7569562235590606e+00
      -7.1374307417990746e-01 -1.3129551616259571e-02
      -2.1030371134878330e+00 4.9517239280123455e+00
      -1.3375596722465306e+00 6.6515957304446427e-01
      -8.4016261239649559e-01 -3.5295947809785280e+00
      -4.6836830604889496e-01 -1.2363504873536288e+00
      1.2615512384133729e-01 -1.1107479505195264e-01
      -4.2880464145966535e+00 7.7716040244593321e-01
      4.2015898611791069e+00 -8.8731966796814099e-01
      -4.1623098957283761e-01 2.0506649672298893e+00
      -3.7691502561598620e+00 -1.8601780766654612e+00
      2.9258529604893857e+00 -3.6186308264864415e+00
      1.5483771833604978e+00 -2.1540662034007441e+00
      4.8997885107892483e+00 -1.7705109394661206e-01
      3.5873357636786953e+00 4.2205463527527156e+00
      1.5428640911825220e-01 1.7537896758068412e+00
      1.6514428145215250e+00 8.3915872717584150e-01
      -1.2453988564799638e+00 -1.4460988176204532e+00
      9.2316227175705279e-01 -2.0889432116057649e+00
      5.4294618137730462e+00 1.8222244358573487e+00
      -2.5294028540874853e+00 1.0044096519437260e+00
      6.4443213611266019e+00 -4.6227173197352984e+00
      6.5605995410480000e+00 6.5819141494080897e+00
      3.7653231041646040e+00 1.3755861006704466e+00
      -1.5219176089125492e+00 -9.5809401039738007e-01
      6.5109877723515810e+00 -7.4349890769122107e+00
      3.0759247208131750e+00 2.7242561751419525e+00
      -1.6239710134172050e+00 3.2255624496097393e+00
      -1.6894205200058458e+01 3.1355714802811674e+00
      -1.8236458404860127e+00 -8.1652538680440212e-01
      2.4681820208733720e+00 -5.6548919976433067e+00
      6.3187396461355521e+00 -1.1686597172025710e+01
      -5.8546527776246382e-01 1.1982808253547486e+00
      4.7269107452279480e+00 5.2839211386706642e-01
      -6.5584623007009943e+00 9.9550168990778545e+00
      -6.1017220232655776e+00 -9.5144543174011034e+00
      8.9675318377283588e+00 -1.8074986323980611e+00
      -4.8701731342231397e-01 1.5827249073058625e+00
      1.5710630030249209e+00 -5.1834486906987749e+00
      9.6973957312782910e-01 -8.6233313234678066e-01
      -4.8600498490720656e-01 5.4465459640120261e-03
      4.6016303588403966e+00 -2.7273427277758611e+00
      5.1065566171147703e+00 5.4177464845504177e+00
      -2.7319399503247666e-01 -2.9682247240175199e+00
      1.5645027382694283e+00 -1.7906858320505377e+00
      -1.9153444399190243e+00 2.4953450550655627e+00
      1.7464659651017882e+00 -7.8846853606064082e-01
      -3.8865123838849835e+00 -9.5251167721801411e-01
      -8.5902596321034119e-01 1.5164844275018863e+00
      1.4082182381439354e+00 2.6139348076660429e-01
      -2.8826750324545465e+00 1.3221113919426237e+00
      -1.3190418807160271e+00 -6.6560014212444463e+00
      9.9576152023163778e-01 8.1053904307031321e-01
      5.6944882311122331e+00 6.1487815213942474e+00
      7.7303777998725378e+00 3.6292861604088595e+00
      -3.4818164143106078e-01 -1.8444933080619033e-01
      5.0891950386925355e+00 5.4771261226440364e+00
      -2.9450177236938608e+00 2.1201044954595081e+00
      2.3407374937326932e+00 -7.5992533202913393e+00
      -1.2663611130285657e+00 4.6969145438368753e-01
      -3.6145740802244157e+00 -1.8128154730830708e+00
      1.0646286521924571e+00 1.1488875502434717e+00
      -5.8557287137300906e-01 -6.3978585979015534e-01
      -2.7102429188585466e+00 4.2393857313411720e+00
      5.3776745010601950e+00 -1.8120781707906422e+00
      4.7714843063023880e+00 5.2936498962724592e+00
      1.8515996171536653e+00 -2.9898937660727198e+00
      -2.0366575019474915e+00 -3.7163275963911881e+00
      2.8634614011597437e+00 1.0598885241210179e+00
      -8.8822281865452407e-02 1.1678049138562479e+00
      -6.0945385814725777e+00 -1.1436242565938466e+00
      5.7266531783276191e+00 -5.5694330276392785e+00
      -2.5029353655119970e+00 -4.4395964783554982e+00
      3.8421175219092296e+00 2.8531913840570026e-02
      2.2703167698836064e+00 4.9516406416506280e+00
      -8.0259096165132482e-01 -3.8890687283993493e+00
      8.1180592436142873e-01 3.0665358370991553e+00
      -4.9322000015919482e-01 -2.4587562995599859e+00
      1.4309873267859982e-01 5.5083439827570926e+00
      -3.0566035506616132e+00 9.4895100114852871e-01
      -6.7367965159115304e+00 3.2098966024396018e+00
      -2.6990854631395811e+00 2.1705258951692077e-01
      3.6869442291862611e+00 -3.9294160915522487e+00
      -2.4669661016617184e+00 2.1326634459092153e+00
      4.6349119400574805e+00 2.9333797185776379e-02
      -8.7857580442943757e+00 2.3473308559716527e-01
      4.8449567643752345e-01 2.8153615836905956e+00
      -3.0148942708842199e+00 3.1325483318175543e-02
      2.0995568674477313e-01 -3.1505274222971389e+00
      -4.5412482263904295e+00 -2.4581520852106156e+00
      -3.4283842363342476e+00 5.9841336612406106e+00
      -2.1490993341168627e+00 -1.8653717116826711e+00
      6.2921136310451420e-01 1.9824929411650667e+00
      -6.9282756571809001e-01 -2.2199052269083031e+00
      8.7990310966072922e+00 -3.3574153629959285e+00
      1.3700353161093164e+00 3.4897373097213071e+00
      6.0128956781014935e+00 2.5401821703146017e+00
      1.5124073667375584e+00 -1.8600545269783553e+00
      -2.6029670290473965e+00 3.7513046100531691e+00
      -7.6707850499693497e-01 -8.6214879318920878e-01
      2.7017992197224863e+00 -5.0161841274478389e+00
      6.3070589539922901e+00 -1.4586721913787619e+00
      -6.0510596670440009e-01 -6.1406259424905141e+00
      8.8239018764916306e+00 4.5284614236015610e+00
      1.8966030484256620e+00 -1.4054168085813235e-01
      -4.6966122992797565e+00 -1.1647455627988657e+00
      -1.1644145139305235e+00 5.2380582651017331e+00
      -4.1328002921076514e+00 -4.1816857317183747e+00
      -1.3142904516967743e-01 -6.5393372361099322e-01
      -1.9867959225045932e+00 -3.6671928183449314e+00
      1.2651817111031446e-01 1.2704975810464940e+00
      3.3109739571102086e+00 9.8948659147215263e+00
      -2.0606703975181662e-01 -2.8453464279773280e+00
      -3.2272105861673941e+00 1.0217825358516647e+01
      4.0105906289853338e-01 2.7616236030661567e-01
      -1.4552883204726413e-01 4.5621240878582308e+00
      1.8787631370504672e+00 3.1981119477744211e+00
      -3.3074022505181864e+00 9.3732971382514318e-01
      -1.0074144920104229e+00 3.6819181566476709e+00
      -1.8005093893157713e+00 -4.2503860695640200e-01
      4.6280209417589644e+00 7.7727563218210116e-02
      5.3820539380830290e+00 -1.7541215966190529e+00
      -1.1792315155924160e+00 -7.6204579189003780e+00
      -1.0769285607475407e-01 3.1930788517255344e+00
      -4.4724086275465508e-01 -8.9834325725818653e-01
      -7.4029015222657222e+00 1.7604160969878155e+00
      -8.3170423649382808e-01 8.3179140996350682e+00
      -2.8803313403685060e-01 -3.9406125303203883e+00
      -3.1477630678064701e+00 -2.8691528065765731e-01
      7.7492072700228909e-01 -4.8130180569259426e+00
      3.5321147731456670e+00 -1.8784510233734764e+00
      3.3148765330476109e+00 4.5225820081072641e+00
      2.9912647193255029e+00 -1.7955090318017302e+00
      2.3891075760964098e+00 1.8939304942856854e+01
      -1.8571625898117412e+00 9.0843088345542888e-01
      1.1964493417161237e+00 6.6892738761119759e+00
      8.6529742925158875e+00 5.1396870096246265e-02
      1.5294014201770885e+00 2.8570699723938389e+00
      -3.2723491090307538e-01 2.1139235907388989e+00
      6.0650573926357043e-01 3.3665029200649219e-02
      5.1063200567725486e+00 -2.3029838702340597e+00
      6.5721765299594272e+00 1.2086174073533744e+00
      -1.3317906212524488e+00 -1.3374751572401853e+00
      -3.6994317284962048e+00 5.6684893993415641e-01
      -5.8372554076856220e-01 2.9907982552596182e+00
      2.2768179089591098e-02 3.9095842867624397e+00
      -3.4614025020707802e+00 -6.4797661268697748e-01
      3.9719725581312955e+00 -3.8655499322301692e+00
      -9.0942297964744405e+00 -4.2644460149147161e+00
      3.2524614612283043e-01 -7.8620817823196643e-01
      -2.3607999296792258e-02 3.8862837521928482e+00
      1.7445784543933462e+00 -2.9813643434139117e+00
      -3.6960892371115088e+00 -1.2545944879945197e+00
      -6.2540679059358406e-01 -2.8432455031317705e+00
      -9.9389005507377526e-01 -3.5066612238582109e+00
      4.3151489373287399e-01 -2.6104815194439279e+00
      -3.3855056466789266e+00 6.0191802776672070e+00
      2.7684595182208125e+00 7.0025033795133729e-01
      -1.3201753239105347e+00 -2.1623176543144984e+00
      -1.5752893526297358e+00 1.7737277191072829e+00
      2.5879032597088041e+00 1.0143412077220297e+00
      2.6447943587253273e+00 4.8851156221164654e-01
      -6.5510674096283894e-01 1.7130126261456993e+00
      -3.8801508094085264e+00 -5.0148355726936067e-01
      -2.0204259620984062e+00 -2.9070663722349344e+00
      4.2842032644263845e+00 3.8340038162260583e+00
      -1.5224543398729329e+00 5.0711423843712913e+00
      5.0360026655309142e-01 -3.0962829783553212e+00
      -5.3391440563347281e+00 3.6194456357249094e+00
      -2.9763130410155751e+00 -3.5038883849618707e+00
      -2.0673533736059997e+00 -8.7269121398731997e+00
      -3.5499578910540253e+00 -8.9785025863052592e+00
      1.6835516024420363e-02 7.6567468867217159e-01
      5.2345518279439607e-01 -3.4684665904966647e+00
      -1.4268793676496609e+01 -1.0373650516651026e+01
      1.1304818608109077e+00 -6.4764700480826898e+00
      -1.0725686494412109e+01 7.2958852307352222e+00
      -6.7178103329435790e-01 -1.1900679687905904e+00
      9.2653512598669270e+00 4.0056557110161581e-02
      1.5585920852679189e+00 8.0349233868521641e-01
      3.7570934510218192e+00 8.6812539327574907e+00
      -6.0439846522230027e+00 4.7846609220103842e+00
      -6.5178191379899619e+00 2.8164459608993329e+00
      -4.3181772499884179e+00 1.6050539413194862e+00
      -2.3105535613033568e+00 5.6432955880702362e+00
      1.2797382087809920e+01 6.7853024678003946e+00
      1.8935898548876102e+00 -2.9419275309936475e+00
      5.1657933546631867e+00 -1.6287503790029291e+01
      5.8201116960541830e+00 3.4757973579804280e+00
      3.1257682720004509e+00 -2.0162144427022519e+00
      -6.1893401615555730e+00 -4.0782126964868413e+00
      6.7592954617231793e-01 -7.8597958319064656e+00
      -2.2873747769485375e-01 -1.3540930553265225e+00
      8.6234622891679646e-01 -9.0599476609973948e+00
      -1.2968250363449222e+01 6.1297925597510972e+00
      -1.5675022141500827e+00 -4.3870361618718920e+00
      -9.5660650631535660e+00 -1.7907989565181797e+00
      -8.3774674605302968e-02 7.2116492235062279e-01
      1.0703609814801158e+01 1.9706966483890657e+01
      -1.6966317640212394e+00 1.0394776976708382e+00
      -3.1247976538114162e+00 -6.4760058679344379e-01
      -6.1561492792739472e+00 3.8022075387469672e+00
      -1.0702323260177666e+01 -1.0002036441805039e+01
      -3.4691110658196664e+00 2.8909927602968053e+00
      9.8099901637565801e-01 -3.9142210596527001e+00
      6.4030119063490210e-01 -2.3090224392349659e+00
      4.2602776396246647e+00 -1.4383851367652007e+00
      4.0414050438212730e+00 3.3588579594749199e+00
      -1.4409400012132183e+00 8.3599712800366159e+00
      -5.6653565972161006e+00 -2.5278938402582289e+00
      -2.5957666453548214e+00 -3.7258804854451864e+00
      -9.7405690712892914e-02 -6.7719569400642685e+00
      1.1342596389076529e+00 -5.4138885101505094e+00
      3.4224833664269285e+00 -9.7691639509468343e-03
      -6.5039891965232348e+00 4.6085641827653617e-01
      2.0123294317224447e+00 4.0929882873937695e-01
      -4.5600717208281498e+00 -1.4916820327387534e+00
      1.9057643080777580e+00 1.7470480021716717e+00
      1.4270297785452388e+00 9.9764253945631882e+00
      2.3595009609974658e+00 -9.2831821656980607e-01
      4.5174006257836288e+00 -4.1311689149345154e+00
      -1.9164356951936037e+00 -6.0284834492086681e-01
      -4.5489628750127773e+00 -5.0990909049065944e+00
      2.6696579597110999e+00 2.2878881624744483e+00
      2.3489026088174141e+00 5.7249078789552259e+00
      -4.4486059240276026e+00 -3.9250337538107143e+00
      -4.5639244786399158e-01 -2.9535933261096732e+00
      1.4207749937664318e-01 3.9610425189171443e+00
      -1.1748197645412413e+00 8.3434810721358375e+00
      -2.0408213180038648e-01 5.7886095596744251e+00
      5.1959120488409538e-01 2.8172434321362294e-01
      2.7815014781560254e+00 -7.6587041347122786e-01
      -8.8025058657533917e-01 5.9061909253704989e+00
      9.8107464943670430e-01 3.5246400837360050e+00
      2.2136526188517003e+00 2.8001858743672288e+00
      -1.1347254825708308e+00 -6.5731167472487473e-01
      -1.0684257281885730e-01 -9.0396570147698903e+00
      -1.0926955887520449e+00 -4.7374218083483663e+00
      6.5263880746134639e-01 1.3522588531841948e+00
      3.4539405734440733e+00 -4.9271954458422285e-01
      -1.6620709381084031e-01 4.4664300696332235e+00
      -4.4234813133091491e+00 7.7257741279081860e-01
      -3.5602475650087082e+00 -1.3134196751765943e+00
      -1.8471570934075350e+00 -4.8393292425893009e+00
      3.5274116931457269e+00 -2.7645615806743318e-01
      6.4092028645044019e-01 -5.9745271430432112e+00
      -1.2143626200810509e+00 -5.5490595957688491e+00
      1.3106039587993248e-01 4.3085041147335223e+00
      3.4258159406015074e+00 1.8327946775248762e+00
      5.5268458093840476e+00 4.0903274514536019e+00
      4.2498833866946271e+00 7.1794164236003226e+00
      -2.4191875099159175e+00 1.0937245448614837e+01
      -1.3740845479846755e+00 5.1265435538742556e+00
      4.7934621879138423e-01 -1.7634481879283864e-01
      9.1401392626628974e-01 4.8607360418965992e+00
      1.2136796806907160e+00 -2.2224976681268549e+00
      -9.2536168651592199e+00 -8.7234208783296008e-01
      -6.7364810558096702e+00 2.9999368905121832e-01
      -6.8001916093282402e+00 -1.1915985186485323e+00
      -3.5961025202027164e-01 1.8963215800859803e-01
      1.3138967003585253e+00 4.6383754901138206e+00
      -5.3462473304121971e+00 3.2324827336537509e-01
      -6.8838973392535141e-01 8.7072551501543245e+00
      -2.7644872459080277e-01 -6.6387694678555276e+00
      3.8631627387386760e+00 -5.2382684522233691e-01
      4.6261437953225908e+00 -3.4370904651543142e+00
      -1.9327970966346824e+00 -7.6512368778727224e-01
      1.1480947116644267e+00 -3.7830717285768967e+00
      4.7100437352879094e+00 -8.6423127187077338e+00
      1.1198341527377989e+01 -6.4391224620689052e+00
      2.4927560655665912e+00 -1.6549156003628926e+00
      -9.9528706445761017e-01 8.3392734925515999e+00
      -4.9159194547919896e+00 -1.4818653979808194e+00
      -7.5654357236314231e+00 3.1916084379538470e+00
      9.9252394904993213e-01 -2.6770030050411968e+00
      -1.5932292798320660e+00 2.3324709677455457e+00
      1.5138518210973826e+00 -2.4264085049467282e-02
      2.8375133843471372e+00 -8.6413125681237479e-01
      1.2098602447007065e+00 -3.8328373534009232e+00
      -1.4460096694813014e+00 -2.5804110774045147e-01
      9.3054780588280184e-01 6.9789931907937408e+00
      -4.1404164489585202e+00 1.2526522179145607e+00
      8.4694456973113941e-01 4.9566221116325915e+00
      7.1847598129184851e+00 -2.1959492560709553e+00
      -1.6228573756676790e+00 3.0133905984685723e+00
      -2.1773944927074611e+00 -6.3622842815357372e-01
      -3.7393922131691575e+00 -8.8241753416410529e-01
      2.4305455312098596e+00 -2.1162221788583788e+00
      4.7035586713643411e+00 -7.1517817137606885e+00
      9.5984202378196060e-01 4.4422868586005171e+00
      1.4881434265360205e+00 3.8482797957961403e+00
      3.0050579121220125e+00 2.9711425292324325e+00
      3.6554929076220106e+00 3.4590509379275609e+00
      1.4562522136832563e+00 -5.5176226369638934e+00
      6.0532491314193120e+00 1.1851521554062785e+00
      2.4153528306203396e+00 3.1709340660266712e+00
      5.7447640065054868e+00 5.8870701829922689e-01
      1.3680890671174852e+00 2.4147366349393944e+00
      -7.1890751372161761e+00 -1.9684843335849782e+00
      3.4416991750150747e+00 -6.1923026916608537e-01
      1.0885539050549540e+00 -2.5756399083210391e+00
      -2.8383737691085247e+00 3.8277732345545963e+00
      1.7951819040904013e+00 5.1519414873641720e+00
      3.4772339395754992e+00 -3.8956747439112709e+00
      -3.1277287552599256e+00 8.7391802330753288e-01
      3.3732523336463247e+00 1.1779302864005512e+00
      -8.3038013209003458e-01 -5.0479571375283436e+00
      6.1799285685968002e+00 1.8090398504100389e+00
      6.5803417694487454e+00 -8.5888871374861253e+00
      2.2448424784300562e+00 8.6978276559927661e+00
      -1.2390855273230192e+00 -2.4882713066764928e+00
      -3.6754436447613821e+00 5.0752745260958667e+00
      4.2259905863762572e+00 1.1524927983440643e+00
      -5.9170745853957278e+00 -3.9822240728032554e+00
      -4.2914579501769907e+00 -2.7168138513394164e+00
      1.1064672046135251e+00 1.2590083113178410e+00
      -6.6609618856989758e+00 -2.6288637894033123e-01
      -3.2795871715837205e-01 -1.8431894692674736e-01
      2.5004217160613114e+00 -6.3731009155435681e+00
      -4.2090814072324223e+00 8.5172593998971280e-01
      -1.4935382756819184e+00 2.5057154050722119e-01
      -1.0303020510372556e+00 3.1162357280000808e+00
      4.1185015951722850e+00 -1.2619100453646910e+00
      2.1331501814067040e+00 -3.8275255112792600e-01
      -1.8084700213934259e+00 3.1981346616494002e+00
      -1.0110288644042122e+00 9.7126676415017699e-01
      -2.0114903412737148e+00 -2.5990814432131821e+00
      3.3580247414810502e+00 4.2365420700112431e+00
      2.1773435340065874e+00 3.5445506084822469e+00
      3.9494262765657209e+00 3.6181395508890407e-01
      4.8445618612144745e+00 7.3421015154498033e+00
      2.9653001670550245e+00 4.6087435602469631e+00
      -3.6347440883673726e-01 -6.8425147506760775e-01
      -4.0745732811681519e+00 -3.0810940172648893e+00
      2.4684845218497098e+00 -3.0201433573008036e+00
      1.8539758663734815e-01 -7.6515344253809958e-01
      -8.4354166581424217e-01 -2.0273792767616112e-02
      -1.2568214805605521e-01 -1.0947409715722909e+00
      9.7521655044226652e-01 -5.9552189187382689e+00
      8.9162837564732511e-01 2.8823261124139177e-01
      4.4701560815255503e-01 -3.4462176666575832e+00
      -2.1874027850404483e+00 3.5586891402778784e+00
      7.1402922622922640e+00 1.4675367000754058e+00
      -7.3468617010418191e-01 -2.6818065483373150e+00
      3.1632152499154970e-01 -1.0468376209023524e+00
      -2.7786380945742412e-01 5.1987360762925638e-01
      4.0606782800106678e-01 1.4721908358029556e+00
      -2.3221540625176931e+00 9.7055698081994848e+00
      2.4714754374700934e+00 5.4200358501994099e+00
      -3.4175942749345850e-01 5.0803413146920762e-01
      -4.0016789767127410e+00 2.0261740740626673e+00
      -5.6628950706418344e+00 4.2010195357682365e+00
      -1.4391945636743539e+00 1.2215505070077073e+00
      -6.3030770838763130e+00 -2.5749852225111063e+00
      1.4425167539928747e+00 -4.8039246027057212e+00
      1.5412976448938107e+00 -2.3034330829540051e+00
      -1.1500661502744587e+00 -3.6097010467541644e+00
      -7.9127471959494033e-01 1.3245712602705735e+00
      4.3056607381684472e-02 -4.8642447145327354e+00
      4.7182226983296536e+00 4.2947246734654457e-02
      -1.9074109719228549e+00 5.2236269295146727e+00
      4.1658887696521738e+00 -7.6054578563190427e+00
      4.4234832122361931e+00 9.4781524626158919e+00
      8.2333213973278019e-01 -5.9592786064052312e+00
      -5.6691301765372240e+00 3.0445126880065758e+00
      -2.5981717366785406e-01 -4.4937180363109537e+00
      -6.0007762411528542e-01 1.9379645751384103e+00
      -9.4725096220961031e+00 3.8597885611945522e+00
      -1.4783235028853994e+01 3.3109240366868158e+00
      1.0273605393940450e+00 7.8768095480264411e-01
      2.0817414491141162e+00 -1.3719919865086216e+00
      -1.2895659022073509e+01 -1.4196175483908045e+01
      -2.1294570883255748e+00 -1.8588802389057455e+00
      -8.7241954249598148e+00 -3.8578386518385659e+00
      8.2510708966063184e-01 -1.4640881547410882e+00
      -2.9648668228667892e+00 4.8745128065037745e-02
      1.6212934026162611e+00 5.2259353112604741e+00
      1.1957201897379186e+00 -1.1452749465004819e+00
      -4.7057782070518911e-01 -7.8753469932220055e+00
      2.9119437665452801e+00 1.1653744563143291e-01
      -7.4195923258453245e-01 2.0875367619436753e+00
      1.7126002278493380e+00 3.6572432162358970e+00
      4.6338610647409750e-01 4.4720664832708303e+00
      1.7848466762920366e-02 -1.7024427491572516e+00
      -1.2519116211697108e+00 1.5414961470741845e-01
      -2.5456434624307556e+00 4.5772510419341850e-01
      6.6925413980977588e-01 1.3570022835827695e+00
      6.3641250847942865e-01 -4.9494683197338478e+00
      -3.7176043734629638e+00 3.3141031942255905e+00
      -2.2478340238680303e+00 -2.2934544829021148e+00
      4.6539536032214199e+00 2.2429086801920044e+00
      -2.5608848789656657e+00 5.2713080931948442e-01
      5.6785733552317552e-01 -2.7416746661958422e+00
      -7.2500203522479731e+00 -2.7282090515008410e+00
      -1.3803331457814447e+00 -5.2617079244836029e+00
      -3.2061788717709379e-02 6.5638110989734955e-01
      7.3340217664633989e-01 -5.6047941900238485e-01
      -3.7832689758451399e-01 1.2182538687960798e+00
      -5.6931735257083078e+00 -7.9216924780845566e-01
      -5.0712165195608279e+00 -1.3119195534566175e+00
      9.9964919485740622e-01 1.4196177274515092e+00
      1.2296973960211255e+00 -9.5048707296301271e-01
      -9.0598102029976957e-01 -3.0200106466662722e+00
      1.0643297098890929e+00 -3.4782229531858424e+00
      6.7257837807450416e-01 -2.2268067838434922e+00
      -1.5266005377760492e+00 -7.2802001391030027e+00
      -1.6924901539278141e+00 -1.0096233195589006e+01
      6.7961255431492251e-01 -7.3684812367638370e+00
      -8.1589126651838537e+00 1.5021996987323305e+00
      -1.3118552817174442e-01 -9.7441949795585303e-01
      2.9260699965329922e+00 -5.8881955073233270e+00
      4.4857321285729048e+00 -1.4314446746778138e+00
      -7.5617947348434478e-01 -4.7967726339712771e+00
      -1.6645221159465056e+00 3.2890614164541399e+00
      2.5696048933560602e+00 -1.4516140523240444e+00
      3.2375884789469791e+00 4.5278380962761728e+00
      -6.8756230914548215e+00 -4.5916899230922734e+00
      -3.0975712186477504e+00 -1.6152763805456323e+00
      -8.5322145647744598e+00 -5.0002939293450073e+00
      9.2470476476576335e-01 -9.5386790062431115e-01
      4.5036363031764468e+00 6.0322744790211198e+00
      7.5563786344964852e+00 -1.7839060604371970e+00
      -8.9753449990339240e-02 4.3845293943773509e+00
      1.0545431448615178e+01 -1.7087430267436492e+00
      4.4337193635945604e-01 4.1245931967068419e+00
      5.8821272801721651e+00 -7.4208690025630615e+00
      -3.6700677926330565e+00 2.9153868818505591e+00
      -9.3902369909310190e-01 -5.4646750589401245e+00
      -1.4080248606535317e+00 1.3738478025763627e+00
      -9.8876346211821318e+00 -4.3631302870684259e+00
      1.4855635916016311e+01 -9.1925384842475599e-01
      6.1469175601645603e+00 5.0651494685240502e-02
      7.6264795979154365e-01 1.2756995346782143e-01
      -1.9550749633362039e+00 -6.9533541533027980e+00
      1.7488393374827424e-01 9.1121988045207902e-01
      3.6300534875143757e+00 -3.6279595638259607e+00
      4.7145629764035792e+00 -2.8377343804944739e+00
      1.8524293717453679e+00 -3.7092961267879665e-01
      4.3758347792648031e+00 -8.4456104077709804e-01
      -1.8794269922254754e+00 2.1236058053083777e+00
      -4.0540018951973185e+00 5.0972950975436881e-01
      3.6850786185711386e+00 -3.0009939379723544e-01
      1.3669628394593474e+00 6.9745387583127882e-01
      4.1157408743449988e+00 -2.9792076845147055e+00
      4.0494869465942127e+00 3.5457328023406993e+00
      1.3361182112955916e+01 5.9466765221517859e+00
      -9.0705336474743810e+00 -2.9097192566138865e+00
      -4.0185493332035902e+00 -1.8860035747823369e+00
      7.5648043681412949e+00 6.7074283904078689e+00
      -2.2636619372131972e+00 -2.4330363398214709e+00
      3.1545953496648349e+00 3.6322132276209342e+00
      -1.0389008238457222e+00 6.7452748070626942e+00
      2.9821633956786435e+00 6.9410086982987362e-01
      -5.8328635347412829e+00 -6.8934798973006322e+00
      -8.5705369742309063e+00 4.4130049570109309e+00
      -2.0040494911417737e+00 1.1308317613729459e+00
      7.0138191497434859e+00 -1.3675239601160396e+01
      -3.4370680141236523e-02 9.2797923947062511e-01
      -4.9193485913612820e+00 2.4831874121962905e+00
      -3.7405449575885203e+00 1.1551272829981636e+00
      -1.1262973324643109e+00 7.4883970009788081e-01
      1.2055599806116670e+00 8.6507726107781047e-01
      -1.3969777700937380e-01 2.4093166064736899e+00
      -1.0349160073236467e+00 1.0540109184934292e+00
      1.7794431788654423e+00 2.5817369996361865e+00
      1.1491344256767746e+01 -5.5414088990260302e-01
      5.8246069469251559e-02 -2.7684618715095524e+00
      -1.5877941025275970e+00 -1.7476878756576446e+00
      5.0225072964409918e+00 -2.5808003604694121e+00
      -6.2199417082919284e-01 -2.5748520998736639e+00
      -1.4951467495315760e+00 -4.4182568540544516e+00
      -2.1684004563890250e-01 2.2605054055008496e+00
      -2.5194634597090588e+00 2.6343028183702120e+00
      -2.2346680988869139e-01 -3.6136903731444461e+00
      -4.6832217185974523e+00 -2.0119900774771606e+00
      4.7095093125020837e-01 4.3518711564394259e+00
      -6.0753971673490241e+00 -2.2294517036985484e+00
      4.1006342740250217e+00 9.8710640870228894e-01
      1.1804817805050790e+01 -1.0711527138907913e+01
      -6.4945136437809733e-02 -4.1341371202653887e-01
      -4.5645212792971784e-01 4.2099942316191621e+00
      -9.9447254772728100e-01 1.1063881195209140e+01
      -1.0056152848907507e+00 -1.4669248656993710e+00
      -1.2582771515399249e+00 4.6382268311751790e-01
      -6.9896422480563092e-01 2.5481906713227520e+00
      7.7183740029914123e+00 -3.6099860376711912e-01
      -3.6343257227911918e+00 8.5883824974990990e+00
      3.4380080996268418e+00 -1.8102374868932867e+00
      6.8021997366064726e+00 -8.7599472451553204e+00
      9.0445428167185926e-01 1.8621861591413984e+00
      4.2176407925736283e+00 3.8097246090935282e+00
      -1.6013730765455603e+00 3.9184315164886456e+00
      1.8377299591548860e-01 3.0773680188462462e+00
      2.4957795722072968e+00 -6.9720428804077725e+00
      2.0906183833376848e-02 1.8061982433968604e+00
      -7.3433439807525369e-01 -4.5082820528641525e+00
      6.6570904451531758e+00 1.1590544849280080e+00
      5.9693696577709190e+00 2.3221087019927125e+00
      7.1593269472389656e+00 -2.0919999182868643e-01
      -2.3631911243138291e+00 -3.6028540055105934e-01
      3.3546500151492165e+00 -1.7799643977413764e+00
      -7.5854820988274989e+00 8.0004051296881311e+00
      -1.0369968062628304e+01 -8.8162115477148131e+00
      -8.3407752159524886e+00 -2.3630414093274492e+00
      -4.5880770555113601e+00 -3.1882104777170750e+00
      -1.4816954490586992e+01 1.1350541599613107e+01
      -4.3714289508631365e+00 1.9895225970983937e+01
      4.4036802164326332e+00 -9.3458156196533189e+00
      7.7532183138071709e-01 2.1547001028463550e+00
      7.1536823629633934e+00 6.6218526572223331e+00
      1.7641392518356966e+00 2.1144522010341733e+00
      5.9312047672734884e+00 8.6251514289087012e+00
      -1.1835641718437238e+01 -3.6455586661692269e-01
      6.0937680440598574e-01 7.9532870784634335e+00
      -7.3838203168871681e+00 -7.8010575863014475e+00
      -4.5483784346122924e-01 8.5003792861495224e+00
      -1.7947537759787442e+00 5.3679438601636997e-01
      1.1674855564266501e+01 4.9342859701827579e-01
      -5.4883028314735345e+00 8.5460885189889240e+00
      5.1629935813850363e+00 1.6008968653748594e+00
      -3.9111342794203598e+00 -3.0989563824326849e-01
      8.1948339410213122e-01 -1.5940766973007550e+00
      3.0733705436697236e+00 1.3845449613854830e+00
      6.1623494411613171e+00 -7.0619522781735666e-02
      8.3467676291923318e+00 2.3094266108144819e+00
      -5.0064062401044787e+00 -1.1636215206407584e+01
      1.0245935423105445e+01 -1.7037405195507944e+01
      4.9018107808853522e+00 -2.0894670673795495e+00
      -8.5683250916125220e-01 6.8975272219807309e+00
      1.6397493974990833e+00 -6.1737949545644941e+00
      3.9614155811620200e+00 -1.2589374811368451e+01
      -2.0484970977865438e-01 -1.2443820912640206e+01
      9.5978662552595839e+00 -4.0900112232170303e+00
      2.9816697543891251e+00 1.0096800227855699e+01
      6.4884509852542127e+00 8.9541444759374027e+00
      -5.0421221294733154e-01 -1.8247531080115376e+00
      -1.5806273127744705e+00 7.2384765853617141e+00
      -1.3627762364572471e+01 -4.2498528785745726e-01
      2.3509852302458603e+00 -4.8809668751365098e+00
      2.8517971358783338e+00 -4.2103441840954481e-01
      -1.6940213464852500e+00 -1.4128241880085126e+00
      2.6072417534910963e+00 1.9846182734762461e+00
      4.8345093960286073e-01 -7.8545008510502274e+00
      2.6625970950216535e+00 3.9231966013349933e+00
      9.3124405783050843e+00 4.2371611564158823e-01
      -3.4448480917801776e+00 -2.6196258395759684e+00
      7.1681191460887295e-01 -5.0889195813390575e+00
      3.5158632386493291e+00 1.7949780028338767e+00
      1.7145245553750501e+00 -3.3324556993353851e+00
      -4.3257924441492319e+00 2.7280749637412391e+00
      -2.1847987012220624e+00 5.3280183933836089e-01
      -6.4193654783896816e+00 -2.0007701731250203e+00
      8.9861110287381862e+00 -1.8383034485077279e+00
      -1.1963996119623335e+00 7.3893942948858662e+00
      9.9326179483976649e+00 7.3657922962991744e+00
      1.5656806142271542e+00 -3.6267120469901357e+00
      4.7497102909914615e+00 -9.2208537517271449e-01
      -1.2031760146403615e+01 -5.4560539394745522e-01
      4.8389074139180215e+00 5.5353861525713697e+00
      1.0206163133544024e-01 -9.8762901012942472e-01
      3.8894582581504085e+00 -2.7042029916933736e+00
      -1.2843844157714019e+01 3.0875794457368380e+00
      4.7786783479521420e+00 -6.8497235787528465e+00
      9.5080604095174976e+00 -3.1479841572187994e+00
      -2.5463792817270807e+00 -9.7173852379106318e-01
      -3.8457173794075933e-01 1.4192614312941265e+00
      2.5051963278525236e+00 3.5702771353480243e+00
      -1.7679975016960390e+00 8.9930818338012859e+00
      1.6862772500973375e+00 -3.2936748243150520e+00
      2.9374219294456383e+00 -3.5400984223936058e+00
      -1.5869240625603128e+01 2.3453077316019981e+00
      -6.8126733885413877e+00 3.1182780443775773e+00
      -9.5917433371480971e+00 -2.1751448820708621e+00
      3.3833756737116488e-01 2.3007171428340505e+00
      9.9645196833588645e-01 -4.4739130029067136e+00
      -5.4798301382846926e-01 -2.8882259134741681e+00
      -3.4816726001932072e+00 -4.6936036254200326e+00
      -1.2421363399428005e+00 -9.0059815538041904e-02
      -1.1328391824636199e+01 9.7139127154918796e+00
      -3.0757866840233401e+00 -9.1341556626671905e-01
      -4.9374387968838579e-01 2.2130368526957258e+00
      -1.7209160491620850e+01 -1.2610455303134700e+00
      9.3815105297669952e+00 -7.9362169810398902e+00
      4.2180889984405123e+00 -7.6912193396723905e-01
      -1.0269436087901933e+00 -7.5792389620248866e+00
      1.0640859572154547e+01 -1.2125776747885505e+01
      1.1161333478184401e+01 -1.0666681381335573e+01
      -5.3132609367653574e+00 1.0731412077634790e+01
      7.6191834900539535e+00 -1.2100871572161167e+00
      3.2286753360124654e+00 -1.1805047695417517e+01
      -1.4629118652707154e+01 -3.6129834972262684e+00
      -1.3553498755313873e+01 4.5756473698155000e+00
      -6.2041464958501322e+00 -5.2490397248147866e+00
      -2.9835658895048195e-01 -2.3836008532673030e+00
      4.3336088496975504e+00 -7.0398169781747999e-01
      -3.3990567616355198e+00 -8.4241403291387158e+00
      -2.0941385649575710e+00 -7.8942442945918829e+00
      -6.9877226107909785e+00 1.7618078263255763e+00
      2.1365185046392550e+00 3.9440054350187523e+00
      3.1260381006202844e+00 1.6128330521330538e+00
      -7.2007660985897370e+00 -2.0482534336643177e+00
      6.6113263785635654e+00 -1.9611083962737978e+00
      -2.9850220828655538e+00 4.1512749521617236e+00
      -1.0027838244546384e+01 3.7171826949057420e+00
      -4.8339346898427840e+00 -3.5885709297941701e-02
      -5.3886487482463661e+00 1.0388943038758974e+01
      -3.1391347259335309e+00 3.1730326572403427e+00
      5.7894947096323284e+00 -4.1164534237085215e+00
      -3.7354279013907883e+00 1.0505971541823463e+01
      2.9909276119695951e+00 8.6291739557654612e+00
      3.0785645446182572e+00 4.8911725064521772e+00
      2.6677694707258577e+00 -7.2357513421424331e+00
      9.4945697692605808e+00 5.6778520422195751e+00
      -1.2273174951147073e-01 9.7152644268058153e-01
      2.5655843030763532e+00 -3.3902331044901342e+00
      3.0262509600798007e+00 8.9812550688415289e+00
      3.1387896888369591e+00 1.3878525071675876e+01
      -1.8404898902003297e+00 -1.7444306906012645e+00
      7.3945627294579817e+00 -5.0461151158528184e+00
      4.1096865751238605e+00 1.2072745601489254e+00
      -8.3604643013520008e-01 -5.0537381259698337e+00
      5.3557265034028720e+00 -4.0595176243166078e+00
      -2.6176332900973209e+00 1.9903685115628633e+00
      -3.6457800185334830e+00 2.5824462052015167e+00
      -1.0296347955311096e+00 -4.2476555007434129e+00
      -4.0189644878819628e+00 5.5802698194205416e+00
      -7.1907414318545956e-02 8.7857835720572393e+00
      2.0754601728402386e+00 2.2017499145970216e+00
      -4.7187205452688783e+00 2.7659724891966033e+00
      -2.2222256676052590e+00 4.0913802172713565e+00
      -2.0336650216035408e+00 3.2665400496035377e+00
      5.5213379569959598e+00 -1.7509860377601436e+00
      -1.4646994295135434e+00 7.7280254188287767e+00
      -3.5332857869810996e-01 1.9548310215153100e+00
      -3.3621834158945476e+00 -4.4467908298580312e+00
      3.0370914369917452e+00 2.4712059876204697e+00
      1.6895423184441916e+00 8.3130472362156471e+00
      1.7109118467334956e+00 -1.0865143998631457e-01
      -3.2879707884941789e+00 4.3418823326929040e-01
      -2.6409384992599683e+00 -1.3018421514793277e+00
      1.0724861332630606e+00 -3.9076158299427215e+00
      7.5956929578541761e+00 -3.8651096847046400e+00
      -5.5133588812477596e-02 2.7045354393985686e+00
      -5.8200589244075935e+00 1.3083643009807970e+00
      -3.4356354555250177e+00 9.1827916677226962e-01
      -1.8489919490047300e+00 -3.0338338260574269e+00
      1.3522272435823055e+00 9.2830939696195125e-01
      -2.3997237007789645e+00 -2.2527461967975402e+00
      -4.4174362136451188e+00 -7.4432540401279361e+00
      -3.6322766416920360e+00 -1.4731525076264689e+00
      1.7551341172180421e+00 1.6178075813423592e-01
      2.2529727570016251e+00 -2.3648556389494004e+00
      2.8256722203529216e+00 -1.0277685189133363e+01
      1.1142448149537028e+00 8.0298842570602069e-01
      -1.5146981072568819e-02 3.7043086605854589e+00
      4.1084217772274051e-01 -2.0954899321989466e+00
      2.9532675438753785e-02 -2.6219592862188450e+00
      -7.6809131388241775e-02 -2.0767638750914026e+00
      4.1712244347216956e+00 -8.7064565986133893e+00
      1.4243081336247669e+00 -1.4522932794927312e+00
      5.5686074835462227e+00 -5.5726615818141623e+00
      8.5707080499174744e+00 -5.6847845202834790e+00
      -6.8005883055515657e+00 9.3624391773905149e+00
      -4.7209009592790174e+00 5.5092542828637407e+00
      -5.3308547834576174e+00 2.9752672138740466e+00
      -6.6868114562667262e+00 -8.2804839874685976e-01
      9.7212419735841871e-01 -1.5052620588179890e+00
      -3.9701370283930473e+00 8.0237173386336682e+00
      -1.2662653412501486e+01 -6.2984127148388653e+00
      -3.6575447916718780e+00 8.3440840778989784e+00
      3.0704975563759174e-01 2.1473236559920581e+00
      6.8422289928506839e+00 -6.9455947467156998e+00
      -4.0078095249610763e+00 1.7101375503900820e+00
      3.3124310057080839e+00 -7.7358598267863785e+00
      6.4894331979726894e-01 2.6441628547082900e+00
      -9.7466881663644911e-01 -4.6132885888659061e+00
      -4.1851925645952690e+00 1.0419684924489511e+01
      -3.0057137064421853e+00 -1.8246337579119443e+00
      4.0352521696419341e+00 -6.6171094993674089e+00
      -3.2222975321407799e-01 -7.3050001525874131e-01
      1.0688055419447282e+00 3.6135860160881972e+00
      1.0108727830840709e+00 -3.3470057228427441e-01
      5.6377821987102514e+00 6.2509060170664235e+00
      -3.0960986041611833e+00 -1.6078818251861202e+00
      1.6203424408407949e+00 -2.8083611789136198e-01
      -8.9298483900873193e-01 6.1493942266202142e+00
      -1.7471475577368438e+00 2.1210248043269013e+00
      -2.0828920957608261e+00 3.9892169991649964e+00
      -9.4701807492711454e-01 -1.2267349358920253e+01
      9.8661624954609149e-03 2.7334994108640513e+00
      -7.6530030086743999e+00 3.9346155179507005e+00
      -3.8246434928523230e+00 2.1767349271646532e+00
      2.3594350804039714e+00 5.5777320334740006e+00
      2.6908087869946042e+00 2.7650654316384169e+00
      2.1061142117657585e+00 -4.3661711945491213e+00
      -6.2773323722047480e-01 4.7051431895545698e-01
      -4.5867988415063508e+00 -1.6210953135501562e+00
      1.2073520322074138e+01 7.4147692868882598e-01
      -7.0416131514106208e+00 7.5075407042117162e+00
      -2.8729077220803538e+00 -1.2506029231184459e+00
      2.2276188519434252e+00 -3.3643157070195491e+00
      1.1959332546955126e-01 -5.0431814191616275e-01
      1.9400388967660047e+00 -6.2756217940319496e+00
      -2.4159824107719947e+00 4.3292700102200428e+00
      4.4465218117827726e-01 -1.1125192897178751e+00
      -2.1593806425810045e+00 2.3169446451761380e-01
      -9.9436603001553346e-03 3.0971654396097317e+00
      -7.8474230267586498e-01 3.6487047493858928e+00
      4.2089146697136988e+00 -9.5197906848060416e+00
      4.2199618577340647e+00 9.7057647746618703e-01
      3.5350905974804929e+00 1.8118457642646071e+00
      -1.7787957997146033e+00 1.2236351563772654e+00
      2.5842415363850657e+00 -3.0756017597405707e+00
      -3.9767478310912447e+00 -7.7582037045798080e-01
      -1.3727702247668856e+00 -1.1052674576278250e+00
      -6.1985109742683075e-01 6.9202317107143729e-01
      -3.1358363106766096e+00 -2.9103486939267436e+00
      3.5291211879077169e+00 5.8430971865399584e-01
      2.5823666252943351e+01 3.8124876218308379e+00
      2.8438822215960617e+01 2.3431404585712865e+01
      -5.4763382596115093e+00 -1.7293275456128583e+01
      -1.3313219308178550e+00 1.9854628324875971e+01
      2.0373401283656431e+01 -7.0071966413687017e+00
      -5.2570917669653285e+00 -1.7335980814224168e+01
      1.1298068441537129e+01 -2.5173662019540735e+01
      -1.6822818387107901e+01 6.7999521361705040e-01
      2.4115094940116435e+01 1.9563553343639448e+01
      3.6601127895880312e+00 1.5824488682904491e+01
      2.4735263253157711e+01 2.9310039095786170e+01
      -7.7484893884194372e+00 7.1524776498965004e-01
      1.0366024042734258e+01 -7.7314824786636889e+00
      1.3146915050347603e+00 -1.3789395194491052e+01
      -6.6789870706517149e+00 3.3406952726358114e+01
      -2.2485697963352234e+01 8.9619481081879186e+00
      -2.2969830164475038e+01 -9.4956854209456925e+00
      2.8914817572158857e+01 1.8832124803056343e+00
      4.2393923217742406e+00 4.4451805249761422e+00
      -1.3984728561468421e+01 1.8742156334981065e+01</_>
    <_>
      6.6564071901117368e+00 2.2499153926855442e-01
      -1.1269975798865910e+00 2.1300935263983001e+00
      -3.4776203420560319e+00 1.0321472307422905e+00
      1.4831976102786207e-01 -4.6561939808311266e+00
      8.6213996062273974e+00 1.2242702695552014e-01
      -1.6639484851035189e+00 -2.4234238141160422e+00
      3.4746423035383761e-01 2.6395593130529411e+00
      2.9152046700834250e-01 1.2678485639730125e-01
      -1.4284664701729612e+00 1.3337529977335354e+00
      4.3588057292091759e-01 3.8682964424215078e+00
      1.5392976642127620e-01 5.5075522007371112e-02
      2.5352734123210634e-02 8.3452110340991328e-02
      2.2893770410911007e+00 2.8927425703768481e+00
      2.4010063820149366e-01 -3.5321810301805137e+00
      -3.1474326104624728e+00 -3.3366519821445997e+00
      1.8260846607551164e+00 -8.6155578871940346e+00
      2.4743143327780440e-02 6.2015148212055731e-03
      -7.7120184192454966e+00 6.1842981882837843e-02
      -4.3738693592825612e-01 -2.2158409789939562e-01
      -7.7491139690491082e-02 -1.1084905903495298e-02
      3.0034186033296112e-01 2.2872350867328781e-01
      3.7894813481989380e+00 4.7372294761553890e-01
      -1.0580663059703611e-02 -4.8450553685311375e+00
      3.3394853469089486e-01 -5.2707300250732541e+00
      -4.0139273840918999e-01 5.3912623453776620e-01
      -6.5681957196956586e-01 3.7824520749628565e+00
      5.7660717525110386e-02 2.3219540479897187e+00
      1.0668341303680566e-01 5.6418591035374466e-01
      1.3246603887850597e+00 -5.7982531545848915e-03
      4.5399918649512461e-01 5.9356398018884144e+00
      2.3762332170528433e-01 1.2402016870855018e-01
      -8.0845404973343982e+00 7.2277893966191331e-02
      2.6004591294741114e-01 6.7578118076674343e-01
      3.8105866458240689e-01 -2.9824099589637900e-03
      6.5308616840743774e+00 3.8758535602329725e-02
      -3.9628910388226274e-01 -7.5050187356783993e-01
      3.9795155772868185e-01 -1.7907162318830055e-01
      1.7882434091584631e-01 -1.9996505862051583e+00
      1.6993637138533586e+00 3.9406100563761565e-01
      -1.0575758872128301e-01 -6.2893612702211188e-01
      -5.3342088285718769e-01 -3.4771542352559073e+00
      -4.9605755540607033e-01 -6.5472830498365375e-01
      4.7559545476538168e-01 -3.6447238279678320e+00
      4.9128090727075624e-01 -2.6417786431729411e+00
      2.7624406513926869e-01 -2.3138008494954729e-01
      -3.6951173018406180e-01 -3.7044461897193764e-02
      3.9614241033177933e-01 1.3088074355934636e+00
      1.8798478773453320e+00 5.3124013326894060e-03
      -5.3447149114665349e+00 -2.6173110902865671e-02
      2.2076080321557687e+00 -2.2353221158722603e+00
      6.4851540323895854e-02 8.0463652573546287e-03
      -1.4551396538355743e+01 -2.4956090972300342e+00
      -1.4347855891910266e-01 -8.8869184725592321e-01
      -1.1911278114618229e+00 -8.6732019482616316e+00
      -2.3660775325300079e-01 -7.0369715502165668e+00
      -1.9908188332215161e+01 -2.9677731377684808e+00
      -3.2310250285688511e+00 -8.8137131106308164e+00
      1.1616069426151301e+00 -5.3992397571689574e+00
      8.5236579354290232e-01 -3.5475696473386886e-01
      -3.2805701463482886e+00 -4.7202406007306177e+00
      -4.7987868504034364e-01 -7.1473335668295341e+00
      -3.1172849565235525e+00 -7.9013885420004049e-01
      -2.6732683075413641e+00 -2.3513556959680675e+00
      -2.6765965082514711e+00 -8.0905573643378457e+00
      -6.9022453531399686e+00 -6.5831307177067320e+00
      -4.3542091614876908e+00 -3.4167468809243995e+00
      -4.3207822352613174e+00 -9.5371958097363052e+00
      1.2841988491941592e-01 -4.3689441082419601e-03
      2.2719431349297969e+00 8.1823332051825404e-02
      1.6511470217852393e-02 1.9030240555233785e-01
      2.0733596971708729e-01 4.1130100911828409e+00
      -1.7340400175043791e-01 7.4957361840884862e-02
      2.6242179862630688e+00 -3.9204789848680843e-01
      4.9228583458601977e-01 -4.8367346586700682e-01
      3.6456739955053952e-01 -1.6621080365328584e+00
      5.2315329302403046e-01 1.3754090642167302e-01
      -2.9035795760138383e-01 -3.5527786268631834e-01
      1.9979803350126735e-01 -6.5023794535144439e-02
      -1.3798457485196078e-04 1.5914185852444873e-01
      2.9319519845600833e-01 6.3916798886166958e-03
      -4.8765193007916507e-01 -1.2819456040936863e+00
      -4.1809329237388004e+00 6.9689784145582801e-04
      2.6978341473255689e+00 1.1467467610058086e-02
      6.8331619264306087e-01 1.5514293847582700e-01
      -5.0041951191638484e-02 -2.8501963914882296e-03
      -5.6139920847969211e+00 3.9147201386246312e-02
      -3.2229616219694140e-01 -7.9495747824316276e-01
      -5.7841420847803325e-02 1.5696247377247650e+00
      -2.6964930295512735e-01 1.5727614749252308e-01
      -5.4089486268452847e+00 1.8443062852928285e-01
      -9.0349132068147028e-02 3.7161746266574966e+00
      -4.9162320674178800e-01 -3.5465556139997920e+00
      7.5816132799530755e-02 -1.1931131310756975e-01
      5.6791854053815582e-01 -1.2376789717367238e+00
      -9.4939997524470784e-02 -1.9751362870921704e-01
      -4.1810027537722651e-02 -2.1121131677609639e-01
      -1.9598939514906139e-01 -1.6721007568561666e-02
      7.1301135717480568e-01 3.0283318726873115e-01
      9.6933062827509825e-02 1.5399409583339926e-02
      -2.0875163192486226e+00 -5.5626278405918198e-03
      5.3687448441149377e-01 -1.5562711998700895e-01
      -1.1526429519386945e+00 -9.6310243306400208e-03
      3.6353221173574646e+00 -7.8255755358263485e-02
      -1.3360460829679513e-01 -3.4801549130967951e-01
      -2.8691596621516910e+00 -4.3369307168695892e-01
      -2.4713714224758765e+00 3.0229910536542781e-01
      -3.9804828841214848e+00 5.0004361910684947e-01
      -2.1768302948002893e+00 2.9534629451665531e+00
      2.2313456746262703e-02 -1.2716217840902184e+00
      7.5700322438359779e-02 -1.9271662036927633e+00
      -9.5931230395660150e-01 -7.1466709205350665e-01
      1.7453125182855397e-01 -2.4813262481048781e+00
      9.3686349742219954e-02 2.0931886320661355e-01
      -1.6163962662524192e-01 1.3004259004501301e-02
      -6.1539158085656953e-01 -3.5423742365940685e+00
      5.4289071104520303e+00 -6.6773645709471206e-04
      -1.1264297501965610e+00 -2.4886116064169782e-03
      3.4687381455634952e-01 5.4012262305357730e+00
      4.5746786296306541e-01 8.8963224655804905e-04
      -5.5407417175837912e+00 -2.4983596559788692e+00
      3.7176198245801489e-01 -2.4183876454160607e+00
      6.9267463750043301e-01 1.9104483429387187e+00
      1.0324090534729262e-01 -3.0867363952985980e+00
      -7.0119638314865247e+00 9.1623274250348807e-01
      1.6902426093613199e+00 -2.0638196334073968e+00
      -1.0616817675211586e-01 5.9548948674137483e+00
      2.6245548080492340e+00 1.7231068147650885e+00
      4.8140349195015542e-01 -4.1401512543901076e+00
      -1.1595365456919051e+00 -6.5533336318412498e+00
      -1.0595088214767841e-02 1.8338787166976181e-01
      -6.0278706603483356e-01 -2.5187622448990362e-02
      2.8140959989115579e+00 5.0634575463201692e-01
      1.2317842368401672e+00 -3.0582071473857813e+00
      2.6840835508636336e+00 3.5440246194466249e+00
      -7.5658473394961989e-01 3.9381236645749516e+00
      -2.7184243003169389e-01 -1.8445275852709702e-02
      2.2479110294958193e+00 9.5961992218864103e-02
      5.2338487040837933e-02 -1.3199641544463389e-01
      -5.3389130650424110e-01 -1.5807518077282829e+00
      -1.6518918558829993e-02 1.1792972088787271e-01
      3.5909543708637863e+00 -7.8300333584566029e-01
      -1.6173194064326493e-01 -4.6598927652590110e+00
      -2.3962688972955631e-01 2.1501592756235106e+00
      -3.7552160514841881e-01 -4.5763968548968317e-02
      -5.9342375224326238e-01 -3.6417598650718612e+00
      1.2289066240468313e-01 7.7940840953372434e-02
      6.2517344946768472e-02 4.2409354460295023e-01
      -1.7884078932471856e-01 -1.2776308844805136e-02
      4.1687209755622501e-01 4.2023441150210790e+00
      2.8274059806417529e+00 5.7711951730368067e+00
      4.1432535541257955e+00 6.9973704671927359e-02
      -1.1004829366183568e+00 -5.4011171249803045e+00
      2.5056193770992086e-01 -2.1177660163398467e-03
      -5.2940650061209888e+00 -3.0322130174006000e-02
      1.7556209139587250e-01 5.2208905083667589e-01
      1.2128538361595918e-02 1.3048851623618501e-01
      5.0031171444015955e-02 -2.8198521520512604e-01
      -6.0975024516119438e+00 -1.5641591482352987e-01
      2.4569513730119655e-01 6.0058560589844250e+00
      2.5749037890043452e-01 4.5776108136965385e+00
      7.2583711286264507e-02 2.4429360592065771e-01
      9.7975586717022542e-02 1.1505945547782859e-01
      1.3332019438360687e-01 1.2863549972703088e+00
      -1.5666971055737550e-01 1.7948794825921627e-01
      2.6944855189502310e-02 1.4192104703564386e-02
      1.5477607239158682e+00 1.5435811772241135e+00
      -7.4872147195678709e-02 2.8479992233535003e-02
      -1.7227158859025193e-01 4.5629286302314422e-02
      1.6314064605245407e-01 -6.2282977368904008e-02
      -5.7592993486237165e-01 -1.0570443896057106e-02
      3.9674326745290198e+00 -3.1590564315829195e-01
      1.4338575048547733e-01 5.1968877472077835e-01
      9.7923201663663056e-02 2.7283669438640307e-01
      -2.9680352186477538e-01 6.4325781935723247e+00
      3.4723984214467776e+00 2.4998628801574388e-01
      -1.4425555513138882e-01 -3.5248164767792933e-01
      4.0224539386261660e-01 8.2640829494077223e-02
      -3.5335352672778414e-01 -8.2873230021561342e-02
      -3.6098023585500766e-01 -4.2058700468226698e-02
      -1.8330448069606117e-01 -3.2872590880989443e+00
      1.8758971390388673e-01 4.6017456254159028e-01
      -6.4338201563726505e-01 1.7985010271671373e-03
      1.0215751748460218e-01 2.9221158296537406e+00
      -1.9110013419385383e-01 3.5352989619477790e-02
      -6.9949021681297829e-01 -3.5460676745926187e-03
      1.8466875595117294e-01 1.2989104996202525e-01
      6.7067342614889780e-01 -3.6342469474145629e-03
      -7.8702813180779314e+00 -5.8463332202905249e-01
      7.4159844874431224e-01 -4.1930378819256781e-01
      3.6783626052756241e-01 -4.1669795438128605e-02
      -4.8433732943245003e-02 -4.4939356716683165e-01
      2.6557245448765019e+00 6.8753196573811615e-01
      1.4633871968180204e-01 -2.5186015942937692e+00
      -9.0649747948701453e-02 2.2892582429704156e+00
      9.8584822768352465e-01 -6.0787033904181065e-01
      -1.3599974076249000e-01 1.7790455792770592e+00
      7.4532375160140008e-01 -7.9178224068818459e-01
      3.6725172186606320e-01 6.7508944833012652e-01
      -1.2420734664235256e+00 -2.5606648758691604e-03
      6.8418619666948388e-01 -2.6958049698865483e+00
      1.1074758869521473e+00 -7.9310110353423299e-04
      3.5111605500144005e+00 -2.1746276657143573e-01
      -7.8786817188764768e-01 -5.9624859444556115e+00
      -6.5206386758699741e-01 -6.0071970684296384e-03
      -3.7002415635561463e+00 -2.1834714374171310e-01
      2.7740831487761081e-01 -3.1129468577234637e-01
      4.0823614638667044e-01 -7.3079514796908485e-01
      -2.8426971626090958e+00 -1.1245814336949106e-01
      7.9786282951040626e+00 3.4055330480832186e-01
      -1.2999557960205702e-01 4.0434955921163702e+00
      8.4877685263707503e-01 2.5223725886074244e-01
      -3.5762846462673908e-01 -2.8416956682648392e-01
      7.1685584729397289e-01 3.4728264383530737e-02
      1.5110213804866265e-01 1.7100696275325071e+00
      -2.7600383960231584e-01 -4.1199657469011436e-01
      3.9435448794353856e-01 -4.4171950746786830e-03
      1.6361169311070576e+00 -7.7325784080539667e-02
      1.6783310747547769e-01 2.0301768016481984e-02
      2.0092948639488788e+00 -3.9339486033479355e-03
      4.3958263191415792e-01 -2.8009845902607083e-01
      7.4238904746698786e-01 1.2451789810444272e-02
      1.2054044966510434e+01 4.2641548445753408e-01
      -3.0747291174386304e-01 -1.0616658717244034e+00
      -5.2409863349196262e-01 -1.7313934728602154e+00
      3.3296481907674774e-01 -1.2252543411921388e+00
      -5.2789429259948424e+00 -2.8892103273375915e+00
      2.3962420020614421e+00 5.5354362354641857e+00
      -6.4989371425524745e-02 3.3110981027102397e+00
      -2.6578835371702234e+00 -1.0789492305172765e+00
      8.1880398388301767e-01 -7.7284524566015686e-02
      1.0551212227549940e+00 -2.8071986477019646e+00
      -3.6658783930732119e-01 1.1969867327485224e+00
      -1.5479939290997714e-03 3.4309003457234005e-02
      3.5688709575337119e-01 6.9535775685964618e-01
      1.2622764657365750e+00 5.2912550889788156e-02
      5.9805731756098961e+00 3.1593757409374056e-02
      -5.1500595839477381e-01 1.9217994854501084e+00
      5.3901847981313589e-01 3.0709353281541656e-03
      5.4945076750616062e-01 -3.2753065932506056e+00
      -1.7741704151431040e-01 -5.6833566417137963e-03
      1.6299477650413330e-01 7.3957846591477239e-01
      -1.9631786778726721e+00 -7.9569352209453974e-03
      -2.6920325751492040e+00 -4.0803273180795289e-02
      -4.2111924760277977e-04 -1.4133389027169774e+00
      4.0732545921592750e-01 -6.6080711028924577e-01
      1.6002990855855861e-01 1.4341193351243025e+00
      1.5675447544814636e+00 -2.1756893369369812e+00
      1.6732608895889239e-01 2.4096714573665992e+00
      -1.7259952635996800e-01 -2.0437246877547784e-02
      2.5025101660124655e-01 3.0811975610920941e-02
      -1.8974851543713647e-01 3.3472903291701224e+00
      1.9850262051638326e-01 6.5173990618491500e+00
      -5.9980110336762198e-02 -2.3311875256164447e-02
      -3.3623283360133482e-01 -2.7101198357954093e-02
      -9.8478064143041422e-01 7.7292010440670085e-03
      3.8103841386475206e+00 1.0661691259960647e-01
      2.5068609724461146e-02 8.3181777108956301e-01
      3.1113227113833414e-01 1.2509239188573577e+01
      5.4217473621174940e-02 2.3706436910626219e-01
      -1.3157183252200488e+00 4.2862736784658522e-03
      -3.0495896979325465e-01 -1.1156069183693291e+00
      3.1339556374511740e-01 -3.4164215579757857e+00
      -1.8491614920819505e-01 -5.8150418196330607e-02
      1.1784775903738607e+00 -7.3387646245524363e-01
      -1.1351766550805663e-01 1.4514995134973780e+00
      6.4653097284863750e-02 8.5939689553532247e-02
      3.4897120836469175e-01 -1.6732964349032296e-03
      -4.1852927075691333e-02 1.5627051895593674e-01
      3.5529552955042752e-02 1.0688224112083285e-02
      8.4155068899872054e-01 2.9245571392751333e-02
      -3.4263985733455560e-01 -1.0532456322081007e+00
      -2.2610471111389321e-01 -3.2284173048940721e-03
      4.9285097533587905e+00 -2.9634145979635268e-01
      1.0752403475867542e-01 3.9313287211920217e-01
      -5.3538311197846344e-01 2.4749173598498320e-01
      4.3370900756135383e-01 -5.0635249084489100e+00
      3.5402500463289610e+00 2.4060793844492046e-01
      6.6524028630909147e+00 1.4994243109603196e+00
      -4.6044853089247773e-01 -3.7161292015826821e+00
      1.4969211163406537e-01 3.2924312939199563e-01
      -2.7716791921800715e-01 -2.8122725820272105e+00
      -4.5895661517534209e-01 6.6556934662636911e+00
      1.4217052786818712e-01 -4.9030372405249933e-01
      -1.5469110107850095e+00 5.8749916300856022e-03
      -2.1914725991030487e-01 1.4852084117967365e-01
      -8.9397704561140923e-01 3.2361732795568476e-02
      -7.5459977886886787e-01 8.7377651183388749e-02
      5.0064522654171584e-01 -2.6745885359077903e-01
      -5.6035385863033048e-02 4.5156490427224246e-03
      2.6465226716328027e+00 -2.1651991731499848e-01
      -9.4420602347240461e-03 8.1666534298824578e-01
      -9.0306362085135330e-02 3.7478645829180696e-01
      -3.7757942190987701e-02 -5.4137529175809282e+00
      8.5572114001315018e+00 5.5776613982091761e-01
      -2.6837722442877787e-01 3.2450994877793078e+00
      1.7649707530242986e-01 -1.0410360923798871e+00
      6.4225146994069071e-01 -3.1915809581149736e-02
      -1.4097933357494546e-01 -2.5875176218760036e+00
      -1.9440609527563918e-01 -2.4906455575289849e-01
      -2.4489010250270282e-02 3.4475408629386373e-01
      8.8358912560844061e-01 7.1952726785211472e-03
      6.8809450173355881e-03 -2.9105612362048455e-01
      1.6610685855776208e-01 2.9925354703325326e+00
      -2.3074560226194127e+00 -3.1687642216907744e-02
      -7.5168077727151950e-01 3.6551630393877055e-01
      2.9540434144006322e-01 7.8784506073214453e-03
      1.0668587052993239e+00 2.3950997028090821e+00
      1.6806693833392387e-02 -9.7816662476782543e-02
      -2.6497120313508660e-01 -4.2692646730020239e-01
      2.2122975761307417e-01 -8.0562371245981347e-03
      -1.4925629469275776e+00 6.3952539406453612e-01
      2.1915629318635572e+00 1.3885949474685673e+00
      -3.3300452712045975e-01 2.1952407190092754e-01
      2.6414300909599436e-02 2.2670774425925067e-01
      4.4992268222797954e-01 4.0464895800547449e-02
      2.8212378384811110e-01 7.5915412128880677e-01
      -2.4344326192261878e-01 1.9901310199453948e-01
      -4.5816825631807234e-01 -3.0759556532829599e-03
      2.2479249297642154e-01 2.8793142818307675e+00
      3.1260355345699695e-02 9.3651742608488100e-03
      1.5581013899693539e+00 6.8028063463777988e-02
      -3.4795917310521512e-01 -6.2867720576244785e+00
      -1.0900841979022353e-01 9.8327246170558328e-03
      -1.4476470407428395e+00 -4.4334866214670525e-02
      -5.6651114723489986e-02 1.7898868266913853e-01
      3.3893118544605993e-01 -4.1284418779845905e-01
      8.7985978971641787e-02 5.1530662498391375e-02
      6.2489050259226584e+00 -8.3252776075482759e-02
      -1.1176410371652175e+00 -6.1305660204661168e+00
      3.8194983372848379e-01 -2.6307394554361192e+00
      2.5319652174832541e-01 -8.3735904027028379e-02
      1.1996494579626020e+00 6.0576604137411494e-01
      4.7584712209730887e-02 -8.7361621944274337e-01
      5.3949898210073566e-02 -2.6903334804543438e-01
      -5.0545754002495458e-01 2.4313061989694598e-02
      5.9694565852159798e-01 -7.2894976411483847e-02
      7.9971199916891805e-02 3.3634693469708925e-02
      2.2559925249096819e+00 -2.2339585447519452e-03
      -2.7737557808548491e-01 1.7678917756559276e-01
      -5.5503280441682101e-01 -1.3368324540268964e-02
      5.9521996050060180e+00 3.7798979943714374e-02
      -1.7127872651350740e-01 7.5387637399223328e-02
      -1.9181775963990536e-01 -8.5194990201552367e-01
      2.1300499097074263e-01 -7.4814402254491846e-02
      2.0588150782604115e+00 -3.3542134961455689e-01
      -4.6449897598299200e-01 -5.2996517896100928e+00
      1.8380291557940787e-01 -5.7296481158367447e+00
      -4.6810764041659442e-01 6.2707376777336510e-02
      1.4738996912666591e-01 -4.0566574304245262e-01
      9.7091785677409032e-02 7.9832227535623279e-01
      -1.4339161332258282e-01 4.2757626321466131e-02
      2.1471955170681550e-02 2.2269023005994874e-03
      4.2429753136796566e-01 1.7116988325022160e+00
      2.2583236569844845e-01 -1.3494759519689932e-03
      1.3074745466689506e+00 4.2469369968809586e-03
      2.1566078704348665e-01 1.3987373317402296e-02
      -7.4669976374263647e-02 1.1528448655940087e-02
      6.9292059467457561e+00 -2.6491584680804681e-01
      5.6736920425637050e-01 -5.5973527348557839e-01
      1.0919373426787916e-01 2.4946625971676686e-01
      3.2815271090221154e+00 4.8563937018249872e+00
      6.3742742614174439e-02 5.1473494334897241e-01
      -5.5941056359623875e+00 -1.9037481361540467e+00
      -7.5131372853512213e-01 -1.3565896470287637e+00
      1.0210290517731084e+00 9.3658611119245158e-02
      8.9933637669510513e-01 -1.2396752063955831e-02
      -2.5860002639177948e-01 7.9308567158259791e-02
      -3.6076297054486989e-01 4.4808176219252127e-01
      7.7373093818170327e-02 -3.7561638749349875e-02
      -1.7991116321463185e+00 1.2686012973827370e+00
      4.0251903635654829e+00 1.1084636381183338e-01
      1.0970587410757791e+00 3.4143415018831327e+00
      -3.5833526086362510e-01 5.8251736435656468e-02
      3.2394736062465290e-01 -2.3769047857767355e-02
      -2.3788999084841485e+00 -1.8381843735508663e-01
      -2.3973780130737274e-01 1.0789510204053419e-01
      1.6885125409109530e-01 9.0873914491198093e-01
      -4.6325792957672852e-03 2.2427103906620296e+00
      3.0729833017631369e+00 2.1122118738310458e-01
      5.8635697364277926e+00 -3.2491961344003624e+00
      -1.2141687410078549e-01 -1.3514851452985552e+00
      -3.0794631453130161e-01 -1.3869889921610692e-01
      -2.8656665001921884e-02 -2.9359892448230851e+00
      -1.3677463156301300e-01 8.6800209388115057e+00
      -1.5502330306558545e-01 -2.2081068264492881e-01
      2.4612311672825501e-01 -3.4896650256833221e-03
      4.5003739015525662e-01 -8.5313760024750374e-01
      -2.3698352946240833e-01 -1.3228913414587422e-02
      1.6191141714256949e+00 -5.4509499610724724e-02
      -2.1494015454535703e-01 4.0861906446042073e-01
      -5.0249700998271229e-01 -6.2160914571595298e-03
      6.4164386032937781e-01 -6.0953622642873864e-02
      -6.6973463038078096e-01 4.0532898729643463e-01
      -2.6626778058189615e-01 -1.1377977612883563e+00
      1.9981183648912021e-01 -4.7462260447482851e+00
      1.4049118768403361e+00 1.8348624151384035e-01
      2.0332348020567803e+00 -3.1406520151218373e+00
      5.5870565495131176e-02 6.9009001632677727e+00
      -1.7626294352058689e+00 5.5320959832983707e-01
      4.3236715612708970e-01 1.9858398724075275e+00
      -6.7069796190110206e-02 -7.9395630150837426e-01
      -4.6510539408088150e-02 -1.1038254136385341e+00
      5.9953967225077598e-01 1.3749698248028224e-04
      1.4854974146736633e-01 4.3431764046268910e-02
      -1.5560219367709660e-01 2.9240142472312276e-02
      9.5708474862655135e-01 6.3948373991476884e-03
      -4.6770695524842709e-01 -6.1056464483418535e+00
      2.6335785730762151e-01 1.5445890144468774e-02
      -4.0631056563183767e+00 -6.4407794410765218e-02
      2.1135412762121458e-01 9.9959484238664284e-02
      -3.3170409117887658e+00 -6.0218867814420840e-01
      -3.5873537128939514e-01 -2.6558346618889273e+00
      1.3544178018122082e+00 2.4599601794694331e-01
      6.5568152594010760e+00 -2.8611525309314598e+00
      -3.5728755552738356e-01 6.4645878819243308e+00
      -2.9798450250430053e-01 -1.9814052370843604e-01
      -1.0930229414586261e-01 -1.0619096983993865e+00
      -7.3389358542795502e-01 -2.6553572229338290e-01
      -1.1036071029455576e-01 -4.1725802548205482e-01
      -2.2355999174415511e-01 -3.8597022897234484e-03
      -3.0477305580755700e-02 -5.5341322634536816e-01
      4.5644214271644010e+00 4.2651006067641474e-02
      -2.2859340156186111e-01 7.4277397706381268e-02
      -2.3024476261284421e-01 3.1625896748360907e+00
      -2.8458621936552486e-01 7.7449319656666751e-03
      -1.0871079964856536e+00 -1.0315026112814032e-01
      -2.0415390953025286e-01 -5.5758818137868460e-01
      -1.6540816008268674e-01 -2.8366418425938384e+00
      -2.4555676961067766e-01 3.1504718466816906e-02
      -1.8639765939329462e+00 3.2411787091209715e-01
      -1.2112109888257973e-01 1.4236663712611903e+00
      -2.5780814111099154e-01 4.8072122481585566e+00
      -3.1280545943098309e-01 4.9991292046858515e-01
      3.3361181530686257e-01 -3.7570237634891823e-01
      1.0054304316313353e-01 2.7377776695497738e+00
      1.6848174842103148e-02 1.6054406435827362e-01
      3.7216664695013324e-01 -1.6901664550048822e-03
      -6.1545503944318081e-01 -1.5638242543192726e-01
      5.7003988224153694e+00 1.3376384475725542e-02
      2.9964505101596811e-01 -9.1221808836134607e-03
      -1.5235507276127831e+00 3.2666685835097414e-01
      4.2377970899059945e-02 -1.3056429841688137e-02
      -3.7213825672826711e-01 -3.1895371981174336e+00
      -3.0822952987772828e-01 7.6624009484798106e-01
      -2.5217687455401483e-01 8.0160040549568397e+00
      3.7331466275001890e-02 4.7401612610562617e-02
      3.4709157878317204e-01 -3.4965721466667754e-01
      -1.3671916942552296e+00 1.3881986524547334e+00
      -1.3994832242066929e-01 5.2532565906108375e-01
      -9.4159220514033459e-01 3.2846570406742859e-01
      -7.1807837643508399e-02 -4.9118072436094068e-01
      -2.2201576347789997e-01 3.8833628781754032e-01
      3.7124135145339333e-02 -1.8751416498872597e-01
      3.2334468706428759e-01 -3.2218191492561195e-03
      1.6186086456610485e-01 5.2207805745626534e-01
      3.7524733099308144e-01 -8.6192613375266312e-03
      -1.8203350310621016e+00 8.8716566999682833e-03
      1.1363484837801306e-01 2.3758258817648983e-01
      8.5394497981623865e-02 -1.2450876240120671e-02
      6.9102111344823847e+00 -1.1470119931411786e-01
      -2.5575244035689837e-01 1.9089819916222961e-01
      4.3464692500909917e-02 -7.4519730182147290e+00
      6.5457277664791635e-01 5.3041831944290671e-03
      -5.1309040138187054e+00 -4.6017445091016529e-01
      -6.5193752487317025e-01 -1.8524707051536586e+00
      2.6058765447201586e-02 -6.1439858988365721e+00
      -1.0871930743474256e+00 -2.1823819223355528e-01
      -4.4360183104273099e-01 -1.3004906595976464e+00
      -8.4721127426943002e-02 5.0366862545031896e+00
      1.2076909786513258e-01 2.8667282242376585e-01
      -8.1415868733105648e-02 -1.7139022974140147e-02
      -1.1650888500419944e-01 -3.0428778797968503e+00
      7.4906867782577657e-02 4.0265494849341874e-03
      2.5305339112537055e+00 3.8058381653067290e-02
      5.7332027356416226e-01 3.6599099067166274e-01
      3.0205838153538617e-01 -1.2239954956762996e-02
      -4.7541674843146646e+00 -3.1718885526071945e-02
      5.4248094352089438e-01 3.2355426120070035e-01
      6.9219593276186098e-01 -1.3677846198740992e-01
      -7.3764212841489554e-02 -1.6438009744456408e-01
      -3.2831035808993700e+00 1.1566912154869016e+00
      8.2157959707430994e-01 -2.6615017154236376e+00
      4.3191221727558754e-01 -2.0651057387897302e+00
      7.6701977085991435e-01 4.5052895014704181e-01
      -2.4679033875752352e-02 3.9059555324911149e-01
      4.9139098159649158e-01 5.9111773525780908e-01
      -1.4060394836896137e-01 -2.3937011481865453e-01
      2.6941548292747197e-01 -3.6172146387766300e+00
      -5.5570380421741628e-01 6.2015888756199322e+00
      1.3421733991165910e-01 -7.2689312376915671e-02
      -3.4723201863495774e+00 -3.0736939135929054e-02
      1.3805802601989542e-02 1.3851321232561514e-01
      4.3255611158482016e-01 -2.4740465139043075e-02
      5.2203221876836450e+00 3.7402064787223537e-03
      3.6279080858325152e-01 -2.1085151196331489e-01
      6.2427314390260731e-02 1.3092582265755093e+00
      2.2916756311509354e-01 -2.4729690252261904e-02
      4.5297994255483909e+00 2.9061587714563680e-01
      -1.2760581764921819e+00 -4.4282027412600176e+00
      9.2849621417493658e-02 -4.9817433800253275e+00
      -3.7364890379434960e-02 -1.4448979770736259e-01
      2.6239277611355281e-02 -4.0115633997496758e-01
      1.6424073924481444e-01 -3.5316958331676136e+00
      -3.0515978658600406e-02 -1.3434067320132492e-01
      1.0476784776117944e+00 2.0310707996576381e-02
      -8.8965313643843247e-02 -2.4871047562744724e+00
      -8.4490035592075814e-03 3.6190615658762827e-03
      -2.2788751253865769e+00 -1.7035565670484688e-02
      7.6163777694007784e-01 -1.5502439632890885e-01
      1.3327075113573664e-01 -9.6145622905989530e-03
      5.9177326505719829e+00 7.5321418691074404e-01
      -9.7365516453595935e-01 -1.0528264950153987e+00
      2.2958056840289576e-01 -6.8026493022930745e-01
      -3.3561153296813684e+00 2.8236892329592629e+00
      -1.7066448592856978e-01 4.7365223699489101e-01
      -3.6695601150905968e+00 -4.1951520530442483e+00
      -7.4150348662254784e-02 4.5717360992139644e-01
      -1.5640966076789828e+00 2.8635044548623836e+00
      3.3323989200045354e-02 -5.0610253364995572e-01
      -5.9539894066979966e-02 4.3505930768647305e+00
      3.5612168559738777e-01 -7.9465446007571761e-01
      5.5693472696047941e-01 3.5483677765657635e+00
      6.4096959205304249e-01 -4.2248728923888317e+00
      -3.2212348920945150e-01 -2.5531180302445913e-02
      6.3284933336856470e+00 -5.1050476608894703e-02
      -3.4387616534517784e-01 1.1353440899217852e-01
      4.0882095365723992e-01 -2.2213746907224996e-02
      7.2527305817364160e+00 -5.2966114157273883e-02
      -7.1981723309481793e-01 1.2785683772470754e-01
      -1.4500324094453593e-01 -8.4742834614866069e-01
      -3.3946357230932717e-01 2.6958470243248052e-02
      1.0253628271782224e+01 -3.1821050513654964e-01
      -2.4275957268504875e-01 1.0078160833737297e+01
      -2.9421865739554226e-01 4.0407737342119043e+00
      -7.1119932981901257e-01 -3.2956075282784516e+00
      -2.0575834675407210e+00 3.3449539867769191e+00
      7.3105167824550538e-02 2.8571781241263455e-01
      -1.9909808618487743e-01 -8.0274840642293543e-01
      -3.9699279630276413e-01 3.6085957762951959e+00
      9.9486240232751699e-01 -6.7616571981702331e-02
      -2.3055110802329058e-02 1.1093039815581568e-02
      1.4413780549365429e+00 -1.1478944676113025e-02
      -2.1365407423569682e-01 7.7239980281017015e-02
      -6.3090579744212630e-02 -1.0710679917787507e-03
      1.0594983704162383e+01 -2.5903076740792867e+00
      9.1012704486195262e-01 -8.7763892797004495e-01
      -2.1303725997474215e-01 2.3901710744698192e+00
      1.7565974665637052e-01 -3.5588519247848321e-01
      -6.8962660891996421e+00 4.9956709313050979e-03
      1.6964314577882439e-01 -2.7134581045095314e+00
      -7.3753481330006601e-02 6.7856659425153234e+00
      8.7757296540316143e-01 1.0509258112081844e-01
      -3.3890523748223650e-01 -2.7489615671640755e-01
      5.6021674211960602e-02 -8.7016204280963627e-01
      1.1297412128794851e-01 3.5309024240686125e-02
      2.8182769073421876e-01 -1.9049280753169997e-02
      3.1861337353120656e-01 -4.6840567442402725e-03
      -2.8331166639420609e+00 4.7332992001686468e-02
      4.1075744093707343e+00 2.4533811798349774e-02
      -2.4857480891484587e-01 1.1163843855672397e+00
      -1.3187559971172089e-01 1.0987224074371202e-02
      -6.1026896777441948e+00 2.6015720824057298e-01
      5.5562581645649767e-01 1.3894282386639147e+00
      -9.3555319421795458e-02 3.3677776347147342e-01
      -3.2115367788401947e-02 -2.6653360206108094e+00
      -2.3638219621038181e+00 1.3407465280609823e-01
      -1.0082925000561642e+00 -1.1721581825983682e+00
      -9.5431861170477486e-03 4.5724938024990012e+00
      9.0809154452052221e-01 3.0073338850482506e-01
      -1.3090965862901918e+00 -3.2824483564446529e+00
      1.9059810503526481e-01 -3.2666900418930442e+00
      1.3169706425696455e-03 -7.3369749140118068e-02
      1.1551809960823568e-01 3.2714494064503649e-02
      8.2574031784201744e-03 2.8256288186969871e+00
      1.1200619729963941e-01 -3.6852408829889223e-02
      1.2270520527464104e+00 1.1266227590118917e-01
      -1.7247761310348897e-01 -5.3599773899636407e+00
      3.9299330536281690e-01 1.3374320561114001e-02
      -1.4417943109592310e+01 2.4802638926654930e+00
      3.0922110380040904e+00 6.6980495939521545e-01
      -3.8722409663885388e-01 -7.8696465503147888e+00
      -2.6810002929736285e+00 5.4743334586029002e-01
      -1.9170609984035412e+01 -6.7366789560959139e-01
      -6.2348293476934629e+00 -1.0142461838762758e+01
      3.4412841391965998e-01 -9.6733792095768063e+00
      -3.4146891569756860e-01 -4.3097463784816732e+00
      -8.1120460745605000e-02 -5.0566978179369588e+00
      -2.0251292232480816e-01 -9.5052595680468031e+00
      1.6690758606676750e-01 6.1002643239970761e-02
      -2.5833578020247572e+00 -3.6318270752223660e+00
      -2.3204065655922066e+00 -2.3865820374885280e+00
      -3.7398763781381437e+00 8.7876424663119665e-02
      -7.5131322008599986e+00 -5.3810068079149370e-02
      -1.2975694175181847e+00 -5.2003539932872433e-01
      -1.0686013317500074e+00 -3.8081644534793790e+00
      -3.8644686745761150e+00 6.7122570407473867e-02
      -8.5195706441508623e-01 1.2674093569144340e-01
      2.6241302557256763e-02 -1.3696248084804905e+00
      -2.3380726509540112e-02 2.8581642740396429e-01
      -3.7571838181268489e+00 1.5744557848863843e-02
      3.4480012411707275e+00 -3.6936037360412413e+00
      -2.7736364551670084e-01 2.8003520311562574e-01
      3.2755414868399801e-01 6.7547351687511947e-01
      2.4256693753361139e-01 -2.7321691817359741e+00
      1.6924230130756360e-01 -1.2667428298071431e-01
      -1.3967810615975876e-01 7.5048562967574606e-01
      6.8373093124202289e-01 3.3597256583887680e-02
      8.4081318488202128e-01 6.2609151713843558e-01
      2.9341071747268401e+00 -6.9621755328961796e-02
      1.6985956968886551e+00 5.5577081199764955e-02
      9.3213188893064236e-01 1.4698968700937406e-01
      -8.6106634018429523e-02 2.6360240245259580e-02
      6.0884103119633233e+00 2.7191340021806818e+00
      -1.8679359169883783e-01 2.6297995504866667e-01
